digraph Tree {
node [shape=box, style="filled, rounded", color="black", fontname="helvetica"] ;
edge [fontname="helvetica"] ;
0 [label="x[8] <= 19.705\ngini = 0.5\nsamples = 9202\nvalue = [4601, 4601]\nclass = g", fillcolor="#ffffff"] ;
1 [label="x[0] <= 114.603\ngini = 0.378\nsamples = 4245\nvalue = [3172, 1073]\nclass = g", fillcolor="#eeac7c"] ;
0 -> 1 [labeldistance=2.5, labelangle=45, headlabel="True"] ;
2 [label="x[8] <= 9.721\ngini = 0.335\nsamples = 3972\nvalue = [3128, 844]\nclass = g", fillcolor="#eca36e"] ;
1 -> 2 ;
3 [label="x[3] <= 0.506\ngini = 0.249\nsamples = 2662\nvalue = [2274, 388]\nclass = g", fillcolor="#e9965b"] ;
2 -> 3 ;
4 [label="x[6] <= -55.256\ngini = 0.206\nsamples = 2320\nvalue = [2049, 271]\nclass = g", fillcolor="#e89253"] ;
3 -> 4 ;
5 [label="x[1] <= 37.836\ngini = 0.475\nsamples = 67\nvalue = [26, 41]\nclass = h", fillcolor="#b7dbf5"] ;
4 -> 5 ;
6 [label="x[3] <= 0.33\ngini = 0.456\nsamples = 37\nvalue = [24, 13]\nclass = g", fillcolor="#f3c5a4"] ;
5 -> 6 ;
7 [label="x[0] <= 74.45\ngini = 0.355\nsamples = 26\nvalue = [20, 6]\nclass = g", fillcolor="#eda774"] ;
6 -> 7 ;
8 [label="gini = 0.0\nsamples = 2\nvalue = [0, 2]\nclass = h", fillcolor="#399de5"] ;
7 -> 8 ;
9 [label="x[9] <= 369.314\ngini = 0.278\nsamples = 24\nvalue = [20, 4]\nclass = g", fillcolor="#ea9a61"] ;
7 -> 9 ;
10 [label="x[1] <= 25.258\ngini = 0.172\nsamples = 21\nvalue = [19, 2]\nclass = g", fillcolor="#e88e4e"] ;
9 -> 10 ;
11 [label="x[0] <= 93.249\ngini = 0.48\nsamples = 5\nvalue = [3, 2]\nclass = g", fillcolor="#f6d5bd"] ;
10 -> 11 ;
12 [label="gini = 0.0\nsamples = 3\nvalue = [3, 0]\nclass = g", fillcolor="#e58139"] ;
11 -> 12 ;
13 [label="gini = 0.0\nsamples = 2\nvalue = [0, 2]\nclass = h", fillcolor="#399de5"] ;
11 -> 13 ;
14 [label="gini = 0.0\nsamples = 16\nvalue = [16, 0]\nclass = g", fillcolor="#e58139"] ;
10 -> 14 ;
15 [label="x[5] <= -73.702\ngini = 0.444\nsamples = 3\nvalue = [1, 2]\nclass = h", fillcolor="#9ccef2"] ;
9 -> 15 ;
16 [label="gini = 0.0\nsamples = 2\nvalue = [0, 2]\nclass = h", fillcolor="#399de5"] ;
15 -> 16 ;
17 [label="gini = 0.0\nsamples = 1\nvalue = [1, 0]\nclass = g", fillcolor="#e58139"] ;
15 -> 17 ;
18 [label="x[3] <= 0.419\ngini = 0.463\nsamples = 11\nvalue = [4, 7]\nclass = h", fillcolor="#aad5f4"] ;
6 -> 18 ;
19 [label="gini = 0.0\nsamples = 6\nvalue = [0, 6]\nclass = h", fillcolor="#399de5"] ;
18 -> 19 ;
20 [label="x[6] <= -61.098\ngini = 0.32\nsamples = 5\nvalue = [4, 1]\nclass = g", fillcolor="#eca06a"] ;
18 -> 20 ;
21 [label="gini = 0.0\nsamples = 4\nvalue = [4, 0]\nclass = g", fillcolor="#e58139"] ;
20 -> 21 ;
22 [label="gini = 0.0\nsamples = 1\nvalue = [0, 1]\nclass = h", fillcolor="#399de5"] ;
20 -> 22 ;
23 [label="x[5] <= 23.586\ngini = 0.124\nsamples = 30\nvalue = [2, 28]\nclass = h", fillcolor="#47a4e7"] ;
5 -> 23 ;
24 [label="x[8] <= 0.483\ngini = 0.067\nsamples = 29\nvalue = [1, 28]\nclass = h", fillcolor="#40a0e6"] ;
23 -> 24 ;
25 [label="x[8] <= 0.4\ngini = 0.444\nsamples = 3\nvalue = [1, 2]\nclass = h", fillcolor="#9ccef2"] ;
24 -> 25 ;
26 [label="gini = 0.0\nsamples = 2\nvalue = [0, 2]\nclass = h", fillcolor="#399de5"] ;
25 -> 26 ;
27 [label="gini = 0.0\nsamples = 1\nvalue = [1, 0]\nclass = g", fillcolor="#e58139"] ;
25 -> 27 ;
28 [label="gini = 0.0\nsamples = 26\nvalue = [0, 26]\nclass = h", fillcolor="#399de5"] ;
24 -> 28 ;
29 [label="gini = 0.0\nsamples = 1\nvalue = [1, 0]\nclass = g", fillcolor="#e58139"] ;
23 -> 29 ;
30 [label="x[1] <= 61.009\ngini = 0.183\nsamples = 2253\nvalue = [2023, 230]\nclass = g", fillcolor="#e88f50"] ;
4 -> 30 ;
31 [label="x[1] <= 8.456\ngini = 0.176\nsamples = 2236\nvalue = [2018, 218]\nclass = g", fillcolor="#e88f4e"] ;
30 -> 31 ;
32 [label="x[3] <= 0.468\ngini = 0.198\nsamples = 9\nvalue = [1, 8]\nclass = h", fillcolor="#52a9e8"] ;
31 -> 32 ;
33 [label="gini = 0.0\nsamples = 8\nvalue = [0, 8]\nclass = h", fillcolor="#399de5"] ;
32 -> 33 ;
34 [label="gini = 0.0\nsamples = 1\nvalue = [1, 0]\nclass = g", fillcolor="#e58139"] ;
32 -> 34 ;
35 [label="x[9] <= 38.705\ngini = 0.171\nsamples = 2227\nvalue = [2017.0, 210.0]\nclass = g", fillcolor="#e88e4e"] ;
31 -> 35 ;
36 [label="x[2] <= 2.644\ngini = 0.219\nsamples = 8\nvalue = [1, 7]\nclass = h", fillcolor="#55abe9"] ;
35 -> 36 ;
37 [label="gini = 0.0\nsamples = 1\nvalue = [1, 0]\nclass = g", fillcolor="#e58139"] ;
36 -> 37 ;
38 [label="gini = 0.0\nsamples = 7\nvalue = [0, 7]\nclass = h", fillcolor="#399de5"] ;
36 -> 38 ;
39 [label="x[3] <= 0.302\ngini = 0.166\nsamples = 2219\nvalue = [2016, 203]\nclass = g", fillcolor="#e88e4d"] ;
35 -> 39 ;
40 [label="x[5] <= -20.693\ngini = 0.108\nsamples = 1380\nvalue = [1301, 79]\nclass = g", fillcolor="#e78945"] ;
39 -> 40 ;
41 [label="x[8] <= 6.24\ngini = 0.207\nsamples = 409\nvalue = [361, 48]\nclass = g", fillcolor="#e89253"] ;
40 -> 41 ;
42 [label="x[8] <= 2.594\ngini = 0.138\nsamples = 334\nvalue = [309.0, 25.0]\nclass = g", fillcolor="#e78b49"] ;
41 -> 42 ;
43 [label="x[7] <= -26.074\ngini = 0.051\nsamples = 192\nvalue = [187, 5]\nclass = g", fillcolor="#e6843e"] ;
42 -> 43 ;
44 [label="x[0] <= 87.119\ngini = 0.444\nsamples = 9\nvalue = [6, 3]\nclass = g", fillcolor="#f2c09c"] ;
43 -> 44 ;
45 [label="gini = 0.0\nsamples = 3\nvalue = [0, 3]\nclass = h", fillcolor="#399de5"] ;
44 -> 45 ;
46 [label="gini = 0.0\nsamples = 6\nvalue = [6, 0]\nclass = g", fillcolor="#e58139"] ;
44 -> 46 ;
47 [label="x[9] <= 212.853\ngini = 0.022\nsamples = 183\nvalue = [181, 2]\nclass = g", fillcolor="#e5823b"] ;
43 -> 47 ;
48 [label="x[9] <= 211.537\ngini = 0.231\nsamples = 15\nvalue = [13, 2]\nclass = g", fillcolor="#e99457"] ;
47 -> 48 ;
49 [label="gini = 0.0\nsamples = 13\nvalue = [13, 0]\nclass = g", fillcolor="#e58139"] ;
48 -> 49 ;
50 [label="gini = 0.0\nsamples = 2\nvalue = [0, 2]\nclass = h", fillcolor="#399de5"] ;
48 -> 50 ;
51 [label="gini = 0.0\nsamples = 168\nvalue = [168, 0]\nclass = g", fillcolor="#e58139"] ;
47 -> 51 ;
52 [label="x[0] <= 103.217\ngini = 0.242\nsamples = 142\nvalue = [122, 20]\nclass = g", fillcolor="#e99659"] ;
42 -> 52 ;
53 [label="x[9] <= 125.194\ngini = 0.191\nsamples = 131\nvalue = [117, 14]\nclass = g", fillcolor="#e89051"] ;
52 -> 53 ;
54 [label="x[2] <= 2.795\ngini = 0.444\nsamples = 3\nvalue = [1, 2]\nclass = h", fillcolor="#9ccef2"] ;
53 -> 54 ;
55 [label="gini = 0.0\nsamples = 1\nvalue = [1, 0]\nclass = g", fillcolor="#e58139"] ;
54 -> 55 ;
56 [label="gini = 0.0\nsamples = 2\nvalue = [0, 2]\nclass = h", fillcolor="#399de5"] ;
54 -> 56 ;
57 [label="x[8] <= 2.615\ngini = 0.17\nsamples = 128\nvalue = [116, 12]\nclass = g", fillcolor="#e88e4d"] ;
53 -> 57 ;
58 [label="gini = 0.0\nsamples = 1\nvalue = [0, 1]\nclass = h", fillcolor="#399de5"] ;
57 -> 58 ;
59 [label="x[6] <= -52.978\ngini = 0.158\nsamples = 127\nvalue = [116, 11]\nclass = g", fillcolor="#e78d4c"] ;
57 -> 59 ;
60 [label="gini = 0.0\nsamples = 1\nvalue = [0, 1]\nclass = h", fillcolor="#399de5"] ;
59 -> 60 ;
61 [label="x[9] <= 250.697\ngini = 0.146\nsamples = 126\nvalue = [116, 10]\nclass = g", fillcolor="#e78c4a"] ;
59 -> 61 ;
62 [label="x[1] <= 32.792\ngini = 0.291\nsamples = 34\nvalue = [28, 6]\nclass = g", fillcolor="#eb9c63"] ;
61 -> 62 ;
63 [label="x[8] <= 4.05\ngini = 0.225\nsamples = 31\nvalue = [27, 4]\nclass = g", fillcolor="#e99456"] ;
62 -> 63 ;
64 [label="x[8] <= 3.817\ngini = 0.42\nsamples = 10\nvalue = [7, 3]\nclass = g", fillcolor="#f0b78e"] ;
63 -> 64 ;
65 [label="x[7] <= -15.699\ngini = 0.219\nsamples = 8\nvalue = [7, 1]\nclass = g", fillcolor="#e99355"] ;
64 -> 65 ;
66 [label="x[2] <= 2.966\ngini = 0.5\nsamples = 2\nvalue = [1, 1]\nclass = g", fillcolor="#ffffff"] ;
65 -> 66 ;
67 [label="gini = 0.0\nsamples = 1\nvalue = [0, 1]\nclass = h", fillcolor="#399de5"] ;
66 -> 67 ;
68 [label="gini = 0.0\nsamples = 1\nvalue = [1, 0]\nclass = g", fillcolor="#e58139"] ;
66 -> 68 ;
69 [label="gini = 0.0\nsamples = 6\nvalue = [6, 0]\nclass = g", fillcolor="#e58139"] ;
65 -> 69 ;
70 [label="gini = 0.0\nsamples = 2\nvalue = [0, 2]\nclass = h", fillcolor="#399de5"] ;
64 -> 70 ;
71 [label="x[4] <= 0.16\ngini = 0.091\nsamples = 21\nvalue = [20, 1]\nclass = g", fillcolor="#e68743"] ;
63 -> 71 ;
72 [label="gini = 0.0\nsamples = 18\nvalue = [18, 0]\nclass = g", fillcolor="#e58139"] ;
71 -> 72 ;
73 [label="x[1] <= 21.744\ngini = 0.444\nsamples = 3\nvalue = [2, 1]\nclass = g", fillcolor="#f2c09c"] ;
71 -> 73 ;
74 [label="gini = 0.0\nsamples = 2\nvalue = [2, 0]\nclass = g", fillcolor="#e58139"] ;
73 -> 74 ;
75 [label="gini = 0.0\nsamples = 1\nvalue = [0, 1]\nclass = h", fillcolor="#399de5"] ;
73 -> 75 ;
76 [label="x[3] <= 0.114\ngini = 0.444\nsamples = 3\nvalue = [1, 2]\nclass = h", fillcolor="#9ccef2"] ;
62 -> 76 ;
77 [label="gini = 0.0\nsamples = 1\nvalue = [1, 0]\nclass = g", fillcolor="#e58139"] ;
76 -> 77 ;
78 [label="gini = 0.0\nsamples = 2\nvalue = [0, 2]\nclass = h", fillcolor="#399de5"] ;
76 -> 78 ;
79 [label="x[4] <= 0.195\ngini = 0.083\nsamples = 92\nvalue = [88, 4]\nclass = g", fillcolor="#e68742"] ;
61 -> 79 ;
80 [label="x[1] <= 37.311\ngini = 0.064\nsamples = 90\nvalue = [87, 3]\nclass = g", fillcolor="#e68540"] ;
79 -> 80 ;
81 [label="x[7] <= -21.621\ngini = 0.025\nsamples = 79\nvalue = [78, 1]\nclass = g", fillcolor="#e5833c"] ;
80 -> 81 ;
82 [label="x[5] <= -75.573\ngini = 0.32\nsamples = 5\nvalue = [4, 1]\nclass = g", fillcolor="#eca06a"] ;
81 -> 82 ;
83 [label="gini = 0.0\nsamples = 1\nvalue = [0, 1]\nclass = h", fillcolor="#399de5"] ;
82 -> 83 ;
84 [label="gini = 0.0\nsamples = 4\nvalue = [4, 0]\nclass = g", fillcolor="#e58139"] ;
82 -> 84 ;
85 [label="gini = 0.0\nsamples = 74\nvalue = [74, 0]\nclass = g", fillcolor="#e58139"] ;
81 -> 85 ;
86 [label="x[0] <= 84.828\ngini = 0.298\nsamples = 11\nvalue = [9, 2]\nclass = g", fillcolor="#eb9d65"] ;
80 -> 86 ;
87 [label="x[3] <= 0.144\ngini = 0.444\nsamples = 3\nvalue = [1, 2]\nclass = h", fillcolor="#9ccef2"] ;
86 -> 87 ;
88 [label="gini = 0.0\nsamples = 1\nvalue = [1, 0]\nclass = g", fillcolor="#e58139"] ;
87 -> 88 ;
89 [label="gini = 0.0\nsamples = 2\nvalue = [0, 2]\nclass = h", fillcolor="#399de5"] ;
87 -> 89 ;
90 [label="gini = 0.0\nsamples = 8\nvalue = [8, 0]\nclass = g", fillcolor="#e58139"] ;
86 -> 90 ;
91 [label="x[7] <= -13.102\ngini = 0.5\nsamples = 2\nvalue = [1, 1]\nclass = g", fillcolor="#ffffff"] ;
79 -> 91 ;
92 [label="gini = 0.0\nsamples = 1\nvalue = [1, 0]\nclass = g", fillcolor="#e58139"] ;
91 -> 92 ;
93 [label="gini = 0.0\nsamples = 1\nvalue = [0, 1]\nclass = h", fillcolor="#399de5"] ;
91 -> 93 ;
94 [label="x[4] <= 0.08\ngini = 0.496\nsamples = 11\nvalue = [5, 6]\nclass = h", fillcolor="#deeffb"] ;
52 -> 94 ;
95 [label="gini = 0.0\nsamples = 3\nvalue = [3, 0]\nclass = g", fillcolor="#e58139"] ;
94 -> 95 ;
96 [label="x[5] <= -46.181\ngini = 0.375\nsamples = 8\nvalue = [2, 6]\nclass = h", fillcolor="#7bbeee"] ;
94 -> 96 ;
97 [label="gini = 0.0\nsamples = 6\nvalue = [0, 6]\nclass = h", fillcolor="#399de5"] ;
96 -> 97 ;
98 [label="gini = 0.0\nsamples = 2\nvalue = [2, 0]\nclass = g", fillcolor="#e58139"] ;
96 -> 98 ;
99 [label="x[3] <= 0.267\ngini = 0.425\nsamples = 75\nvalue = [52, 23]\nclass = g", fillcolor="#f0b991"] ;
41 -> 99 ;
100 [label="x[9] <= 124.664\ngini = 0.363\nsamples = 63\nvalue = [48, 15]\nclass = g", fillcolor="#eda877"] ;
99 -> 100 ;
101 [label="gini = 0.0\nsamples = 3\nvalue = [0, 3]\nclass = h", fillcolor="#399de5"] ;
100 -> 101 ;
102 [label="x[7] <= 10.939\ngini = 0.32\nsamples = 60\nvalue = [48, 12]\nclass = g", fillcolor="#eca06a"] ;
100 -> 102 ;
103 [label="x[2] <= 3.316\ngini = 0.139\nsamples = 40\nvalue = [37, 3]\nclass = g", fillcolor="#e78b49"] ;
102 -> 103 ;
104 [label="gini = 0.0\nsamples = 32\nvalue = [32, 0]\nclass = g", fillcolor="#e58139"] ;
103 -> 104 ;
105 [label="x[3] <= 0.213\ngini = 0.469\nsamples = 8\nvalue = [5, 3]\nclass = g", fillcolor="#f5cdb0"] ;
103 -> 105 ;
106 [label="gini = 0.0\nsamples = 5\nvalue = [5, 0]\nclass = g", fillcolor="#e58139"] ;
105 -> 106 ;
107 [label="gini = 0.0\nsamples = 3\nvalue = [0, 3]\nclass = h", fillcolor="#399de5"] ;
105 -> 107 ;
108 [label="x[8] <= 8.755\ngini = 0.495\nsamples = 20\nvalue = [11, 9]\nclass = g", fillcolor="#fae8db"] ;
102 -> 108 ;
109 [label="x[6] <= 66.3\ngini = 0.219\nsamples = 8\nvalue = [7, 1]\nclass = g", fillcolor="#e99355"] ;
108 -> 109 ;
110 [label="gini = 0.0\nsamples = 6\nvalue = [6, 0]\nclass = g", fillcolor="#e58139"] ;
109 -> 110 ;
111 [label="x[3] <= 0.164\ngini = 0.5\nsamples = 2\nvalue = [1, 1]\nclass = g", fillcolor="#ffffff"] ;
109 -> 111 ;
112 [label="gini = 0.0\nsamples = 1\nvalue = [1, 0]\nclass = g", fillcolor="#e58139"] ;
111 -> 112 ;
113 [label="gini = 0.0\nsamples = 1\nvalue = [0, 1]\nclass = h", fillcolor="#399de5"] ;
111 -> 113 ;
114 [label="x[6] <= -25.795\ngini = 0.444\nsamples = 12\nvalue = [4, 8]\nclass = h", fillcolor="#9ccef2"] ;
108 -> 114 ;
115 [label="x[7] <= 11.616\ngini = 0.32\nsamples = 5\nvalue = [4, 1]\nclass = g", fillcolor="#eca06a"] ;
114 -> 115 ;
116 [label="gini = 0.0\nsamples = 1\nvalue = [0, 1]\nclass = h", fillcolor="#399de5"] ;
115 -> 116 ;
117 [label="gini = 0.0\nsamples = 4\nvalue = [4, 0]\nclass = g", fillcolor="#e58139"] ;
115 -> 117 ;
118 [label="gini = 0.0\nsamples = 7\nvalue = [0, 7]\nclass = h", fillcolor="#399de5"] ;
114 -> 118 ;
119 [label="x[4] <= 0.175\ngini = 0.444\nsamples = 12\nvalue = [4, 8]\nclass = h", fillcolor="#9ccef2"] ;
99 -> 119 ;
120 [label="x[1] <= 15.343\ngini = 0.198\nsamples = 9\nvalue = [1, 8]\nclass = h", fillcolor="#52a9e8"] ;
119 -> 120 ;
121 [label="gini = 0.0\nsamples = 1\nvalue = [1, 0]\nclass = g", fillcolor="#e58139"] ;
120 -> 121 ;
122 [label="gini = 0.0\nsamples = 8\nvalue = [0, 8]\nclass = h", fillcolor="#399de5"] ;
120 -> 122 ;
123 [label="gini = 0.0\nsamples = 3\nvalue = [3, 0]\nclass = g", fillcolor="#e58139"] ;
119 -> 123 ;
124 [label="x[7] <= -29.639\ngini = 0.062\nsamples = 971\nvalue = [940, 31]\nclass = g", fillcolor="#e68540"] ;
40 -> 124 ;
125 [label="x[6] <= 89.326\ngini = 0.388\nsamples = 19\nvalue = [14, 5]\nclass = g", fillcolor="#eeae80"] ;
124 -> 125 ;
126 [label="x[3] <= 0.209\ngini = 0.291\nsamples = 17\nvalue = [14, 3]\nclass = g", fillcolor="#eb9c63"] ;
125 -> 126 ;
127 [label="gini = 0.0\nsamples = 11\nvalue = [11, 0]\nclass = g", fillcolor="#e58139"] ;
126 -> 127 ;
128 [label="x[9] <= 254.128\ngini = 0.5\nsamples = 6\nvalue = [3, 3]\nclass = g", fillcolor="#ffffff"] ;
126 -> 128 ;
129 [label="gini = 0.0\nsamples = 2\nvalue = [0, 2]\nclass = h", fillcolor="#399de5"] ;
128 -> 129 ;
130 [label="x[3] <= 0.216\ngini = 0.375\nsamples = 4\nvalue = [3, 1]\nclass = g", fillcolor="#eeab7b"] ;
128 -> 130 ;
131 [label="gini = 0.0\nsamples = 1\nvalue = [0, 1]\nclass = h", fillcolor="#399de5"] ;
130 -> 131 ;
132 [label="gini = 0.0\nsamples = 3\nvalue = [3, 0]\nclass = g", fillcolor="#e58139"] ;
130 -> 132 ;
133 [label="gini = 0.0\nsamples = 2\nvalue = [0, 2]\nclass = h", fillcolor="#399de5"] ;
125 -> 133 ;
134 [label="x[6] <= 124.623\ngini = 0.053\nsamples = 952\nvalue = [926, 26]\nclass = g", fillcolor="#e6853f"] ;
124 -> 134 ;
135 [label="x[2] <= 2.868\ngini = 0.051\nsamples = 951\nvalue = [926, 25]\nclass = g", fillcolor="#e6843e"] ;
134 -> 135 ;
136 [label="x[4] <= 0.108\ngini = 0.155\nsamples = 106\nvalue = [97, 9]\nclass = g", fillcolor="#e78d4b"] ;
135 -> 136 ;
137 [label="x[3] <= 0.203\ngini = 0.444\nsamples = 3\nvalue = [1, 2]\nclass = h", fillcolor="#9ccef2"] ;
136 -> 137 ;
138 [label="gini = 0.0\nsamples = 1\nvalue = [1, 0]\nclass = g", fillcolor="#e58139"] ;
137 -> 138 ;
139 [label="gini = 0.0\nsamples = 2\nvalue = [0, 2]\nclass = h", fillcolor="#399de5"] ;
137 -> 139 ;
140 [label="x[7] <= 15.0\ngini = 0.127\nsamples = 103\nvalue = [96, 7]\nclass = g", fillcolor="#e78a47"] ;
136 -> 140 ;
141 [label="x[2] <= 2.867\ngini = 0.064\nsamples = 91\nvalue = [88, 3]\nclass = g", fillcolor="#e68540"] ;
140 -> 141 ;
142 [label="x[8] <= 9.539\ngini = 0.043\nsamples = 90\nvalue = [88, 2]\nclass = g", fillcolor="#e6843d"] ;
141 -> 142 ;
143 [label="x[1] <= 13.29\ngini = 0.022\nsamples = 88\nvalue = [87, 1]\nclass = g", fillcolor="#e5823b"] ;
142 -> 143 ;
144 [label="x[5] <= 40.857\ngini = 0.444\nsamples = 3\nvalue = [2, 1]\nclass = g", fillcolor="#f2c09c"] ;
143 -> 144 ;
145 [label="gini = 0.0\nsamples = 1\nvalue = [0, 1]\nclass = h", fillcolor="#399de5"] ;
144 -> 145 ;
146 [label="gini = 0.0\nsamples = 2\nvalue = [2, 0]\nclass = g", fillcolor="#e58139"] ;
144 -> 146 ;
147 [label="gini = 0.0\nsamples = 85\nvalue = [85, 0]\nclass = g", fillcolor="#e58139"] ;
143 -> 147 ;
148 [label="x[6] <= 25.394\ngini = 0.5\nsamples = 2\nvalue = [1, 1]\nclass = g", fillcolor="#ffffff"] ;
142 -> 148 ;
149 [label="gini = 0.0\nsamples = 1\nvalue = [1, 0]\nclass = g", fillcolor="#e58139"] ;
148 -> 149 ;
150 [label="gini = 0.0\nsamples = 1\nvalue = [0, 1]\nclass = h", fillcolor="#399de5"] ;
148 -> 150 ;
151 [label="gini = 0.0\nsamples = 1\nvalue = [0, 1]\nclass = h", fillcolor="#399de5"] ;
141 -> 151 ;
152 [label="x[0] <= 39.085\ngini = 0.444\nsamples = 12\nvalue = [8, 4]\nclass = g", fillcolor="#f2c09c"] ;
140 -> 152 ;
153 [label="gini = 0.0\nsamples = 6\nvalue = [6, 0]\nclass = g", fillcolor="#e58139"] ;
152 -> 153 ;
154 [label="x[1] <= 24.83\ngini = 0.444\nsamples = 6\nvalue = [2, 4]\nclass = h", fillcolor="#9ccef2"] ;
152 -> 154 ;
155 [label="gini = 0.0\nsamples = 4\nvalue = [0, 4]\nclass = h", fillcolor="#399de5"] ;
154 -> 155 ;
156 [label="gini = 0.0\nsamples = 2\nvalue = [2, 0]\nclass = g", fillcolor="#e58139"] ;
154 -> 156 ;
157 [label="x[6] <= 118.667\ngini = 0.037\nsamples = 845\nvalue = [829, 16]\nclass = g", fillcolor="#e6833d"] ;
135 -> 157 ;
158 [label="x[5] <= 118.675\ngini = 0.035\nsamples = 843\nvalue = [828.0, 15.0]\nclass = g", fillcolor="#e5833d"] ;
157 -> 158 ;
159 [label="x[7] <= 35.073\ngini = 0.033\nsamples = 839\nvalue = [825, 14]\nclass = g", fillcolor="#e5833c"] ;
158 -> 159 ;
160 [label="x[9] <= 139.949\ngini = 0.031\nsamples = 835\nvalue = [822, 13]\nclass = g", fillcolor="#e5833c"] ;
159 -> 160 ;
161 [label="x[0] <= 81.329\ngini = 0.131\nsamples = 57\nvalue = [53, 4]\nclass = g", fillcolor="#e78b48"] ;
160 -> 161 ;
162 [label="x[6] <= 1.833\ngini = 0.071\nsamples = 54\nvalue = [52, 2]\nclass = g", fillcolor="#e68641"] ;
161 -> 162 ;
163 [label="x[8] <= 3.549\ngini = 0.375\nsamples = 8\nvalue = [6, 2]\nclass = g", fillcolor="#eeab7b"] ;
162 -> 163 ;
164 [label="x[8] <= 0.415\ngini = 0.444\nsamples = 3\nvalue = [1, 2]\nclass = h", fillcolor="#9ccef2"] ;
163 -> 164 ;
165 [label="gini = 0.0\nsamples = 1\nvalue = [1, 0]\nclass = g", fillcolor="#e58139"] ;
164 -> 165 ;
166 [label="gini = 0.0\nsamples = 2\nvalue = [0, 2]\nclass = h", fillcolor="#399de5"] ;
164 -> 166 ;
167 [label="gini = 0.0\nsamples = 5\nvalue = [5, 0]\nclass = g", fillcolor="#e58139"] ;
163 -> 167 ;
168 [label="gini = 0.0\nsamples = 46\nvalue = [46, 0]\nclass = g", fillcolor="#e58139"] ;
162 -> 168 ;
169 [label="x[8] <= 7.041\ngini = 0.444\nsamples = 3\nvalue = [1, 2]\nclass = h", fillcolor="#9ccef2"] ;
161 -> 169 ;
170 [label="gini = 0.0\nsamples = 2\nvalue = [0, 2]\nclass = h", fillcolor="#399de5"] ;
169 -> 170 ;
171 [label="gini = 0.0\nsamples = 1\nvalue = [1, 0]\nclass = g", fillcolor="#e58139"] ;
169 -> 171 ;
172 [label="x[1] <= 50.604\ngini = 0.023\nsamples = 778\nvalue = [769, 9]\nclass = g", fillcolor="#e5823b"] ;
160 -> 172 ;
173 [label="x[1] <= 14.866\ngini = 0.02\nsamples = 773\nvalue = [765, 8]\nclass = g", fillcolor="#e5823b"] ;
172 -> 173 ;
174 [label="x[0] <= 72.448\ngini = 0.198\nsamples = 9\nvalue = [8, 1]\nclass = g", fillcolor="#e89152"] ;
173 -> 174 ;
175 [label="gini = 0.0\nsamples = 8\nvalue = [8, 0]\nclass = g", fillcolor="#e58139"] ;
174 -> 175 ;
176 [label="gini = 0.0\nsamples = 1\nvalue = [0, 1]\nclass = h", fillcolor="#399de5"] ;
174 -> 176 ;
177 [label="x[2] <= 3.21\ngini = 0.018\nsamples = 764\nvalue = [757.0, 7.0]\nclass = g", fillcolor="#e5823b"] ;
173 -> 177 ;
178 [label="x[1] <= 35.077\ngini = 0.041\nsamples = 337\nvalue = [330, 7]\nclass = g", fillcolor="#e6843d"] ;
177 -> 178 ;
179 [label="x[2] <= 3.209\ngini = 0.035\nsamples = 336\nvalue = [330, 6]\nclass = g", fillcolor="#e5833d"] ;
178 -> 179 ;
180 [label="x[9] <= 289.318\ngini = 0.029\nsamples = 335\nvalue = [330, 5]\nclass = g", fillcolor="#e5833c"] ;
179 -> 180 ;
181 [label="x[8] <= 0.535\ngini = 0.013\nsamples = 310\nvalue = [308, 2]\nclass = g", fillcolor="#e5823a"] ;
180 -> 181 ;
182 [label="x[8] <= 0.458\ngini = 0.087\nsamples = 22\nvalue = [21, 1]\nclass = g", fillcolor="#e68742"] ;
181 -> 182 ;
183 [label="gini = 0.0\nsamples = 21\nvalue = [21, 0]\nclass = g", fillcolor="#e58139"] ;
182 -> 183 ;
184 [label="gini = 0.0\nsamples = 1\nvalue = [0, 1]\nclass = h", fillcolor="#399de5"] ;
182 -> 184 ;
185 [label="x[9] <= 161.983\ngini = 0.007\nsamples = 288\nvalue = [287, 1]\nclass = g", fillcolor="#e5813a"] ;
181 -> 185 ;
186 [label="x[9] <= 161.515\ngini = 0.067\nsamples = 29\nvalue = [28, 1]\nclass = g", fillcolor="#e68640"] ;
185 -> 186 ;
187 [label="gini = 0.0\nsamples = 28\nvalue = [28, 0]\nclass = g", fillcolor="#e58139"] ;
186 -> 187 ;
188 [label="gini = 0.0\nsamples = 1\nvalue = [0, 1]\nclass = h", fillcolor="#399de5"] ;
186 -> 188 ;
189 [label="gini = 0.0\nsamples = 259\nvalue = [259, 0]\nclass = g", fillcolor="#e58139"] ;
185 -> 189 ;
190 [label="x[0] <= 58.917\ngini = 0.211\nsamples = 25\nvalue = [22, 3]\nclass = g", fillcolor="#e99254"] ;
180 -> 190 ;
191 [label="gini = 0.0\nsamples = 2\nvalue = [0, 2]\nclass = h", fillcolor="#399de5"] ;
190 -> 191 ;
192 [label="x[2] <= 3.205\ngini = 0.083\nsamples = 23\nvalue = [22, 1]\nclass = g", fillcolor="#e68742"] ;
190 -> 192 ;
193 [label="gini = 0.0\nsamples = 22\nvalue = [22, 0]\nclass = g", fillcolor="#e58139"] ;
192 -> 193 ;
194 [label="gini = 0.0\nsamples = 1\nvalue = [0, 1]\nclass = h", fillcolor="#399de5"] ;
192 -> 194 ;
195 [label="gini = 0.0\nsamples = 1\nvalue = [0, 1]\nclass = h", fillcolor="#399de5"] ;
179 -> 195 ;
196 [label="gini = 0.0\nsamples = 1\nvalue = [0, 1]\nclass = h", fillcolor="#399de5"] ;
178 -> 196 ;
197 [label="gini = 0.0\nsamples = 427\nvalue = [427, 0]\nclass = g", fillcolor="#e58139"] ;
177 -> 197 ;
198 [label="x[3] <= 0.095\ngini = 0.32\nsamples = 5\nvalue = [4, 1]\nclass = g", fillcolor="#eca06a"] ;
172 -> 198 ;
199 [label="gini = 0.0\nsamples = 4\nvalue = [4, 0]\nclass = g", fillcolor="#e58139"] ;
198 -> 199 ;
200 [label="gini = 0.0\nsamples = 1\nvalue = [0, 1]\nclass = h", fillcolor="#399de5"] ;
198 -> 200 ;
201 [label="x[7] <= 37.247\ngini = 0.375\nsamples = 4\nvalue = [3, 1]\nclass = g", fillcolor="#eeab7b"] ;
159 -> 201 ;
202 [label="gini = 0.0\nsamples = 1\nvalue = [0, 1]\nclass = h", fillcolor="#399de5"] ;
201 -> 202 ;
203 [label="gini = 0.0\nsamples = 3\nvalue = [3, 0]\nclass = g", fillcolor="#e58139"] ;
201 -> 203 ;
204 [label="x[4] <= 0.064\ngini = 0.375\nsamples = 4\nvalue = [3, 1]\nclass = g", fillcolor="#eeab7b"] ;
158 -> 204 ;
205 [label="gini = 0.0\nsamples = 3\nvalue = [3, 0]\nclass = g", fillcolor="#e58139"] ;
204 -> 205 ;
206 [label="gini = 0.0\nsamples = 1\nvalue = [0, 1]\nclass = h", fillcolor="#399de5"] ;
204 -> 206 ;
207 [label="x[3] <= 0.125\ngini = 0.5\nsamples = 2\nvalue = [1, 1]\nclass = g", fillcolor="#ffffff"] ;
157 -> 207 ;
208 [label="gini = 0.0\nsamples = 1\nvalue = [0, 1]\nclass = h", fillcolor="#399de5"] ;
207 -> 208 ;
209 [label="gini = 0.0\nsamples = 1\nvalue = [1, 0]\nclass = g", fillcolor="#e58139"] ;
207 -> 209 ;
210 [label="gini = 0.0\nsamples = 1\nvalue = [0, 1]\nclass = h", fillcolor="#399de5"] ;
134 -> 210 ;
211 [label="x[1] <= 21.197\ngini = 0.252\nsamples = 839\nvalue = [715, 124]\nclass = g", fillcolor="#ea975b"] ;
39 -> 211 ;
212 [label="x[9] <= 342.241\ngini = 0.217\nsamples = 741\nvalue = [649, 92]\nclass = g", fillcolor="#e99355"] ;
211 -> 212 ;
213 [label="x[9] <= 137.477\ngini = 0.211\nsamples = 736\nvalue = [648, 88]\nclass = g", fillcolor="#e99254"] ;
212 -> 213 ;
214 [label="x[2] <= 2.642\ngini = 0.358\nsamples = 124\nvalue = [95, 29]\nclass = g", fillcolor="#eda775"] ;
213 -> 214 ;
215 [label="x[2] <= 2.322\ngini = 0.198\nsamples = 72\nvalue = [64, 8]\nclass = g", fillcolor="#e89152"] ;
214 -> 215 ;
216 [label="gini = 0.0\nsamples = 2\nvalue = [0, 2]\nclass = h", fillcolor="#399de5"] ;
215 -> 216 ;
217 [label="x[7] <= -14.58\ngini = 0.157\nsamples = 70\nvalue = [64, 6]\nclass = g", fillcolor="#e78d4c"] ;
215 -> 217 ;
218 [label="gini = 0.0\nsamples = 1\nvalue = [0, 1]\nclass = h", fillcolor="#399de5"] ;
217 -> 218 ;
219 [label="x[9] <= 136.375\ngini = 0.134\nsamples = 69\nvalue = [64, 5]\nclass = g", fillcolor="#e78b48"] ;
217 -> 219 ;
220 [label="x[2] <= 2.4\ngini = 0.111\nsamples = 68\nvalue = [64, 4]\nclass = g", fillcolor="#e78945"] ;
219 -> 220 ;
221 [label="x[4] <= 0.249\ngini = 0.355\nsamples = 13\nvalue = [10, 3]\nclass = g", fillcolor="#eda774"] ;
220 -> 221 ;
222 [label="x[3] <= 0.426\ngini = 0.375\nsamples = 4\nvalue = [1, 3]\nclass = h", fillcolor="#7bbeee"] ;
221 -> 222 ;
223 [label="gini = 0.0\nsamples = 1\nvalue = [1, 0]\nclass = g", fillcolor="#e58139"] ;
222 -> 223 ;
224 [label="gini = 0.0\nsamples = 3\nvalue = [0, 3]\nclass = h", fillcolor="#399de5"] ;
222 -> 224 ;
225 [label="gini = 0.0\nsamples = 9\nvalue = [9, 0]\nclass = g", fillcolor="#e58139"] ;
221 -> 225 ;
226 [label="x[9] <= 60.845\ngini = 0.036\nsamples = 55\nvalue = [54, 1]\nclass = g", fillcolor="#e5833d"] ;
220 -> 226 ;
227 [label="x[6] <= 22.253\ngini = 0.444\nsamples = 3\nvalue = [2, 1]\nclass = g", fillcolor="#f2c09c"] ;
226 -> 227 ;
228 [label="gini = 0.0\nsamples = 2\nvalue = [2, 0]\nclass = g", fillcolor="#e58139"] ;
227 -> 228 ;
229 [label="gini = 0.0\nsamples = 1\nvalue = [0, 1]\nclass = h", fillcolor="#399de5"] ;
227 -> 229 ;
230 [label="gini = 0.0\nsamples = 52\nvalue = [52, 0]\nclass = g", fillcolor="#e58139"] ;
226 -> 230 ;
231 [label="gini = 0.0\nsamples = 1\nvalue = [0, 1]\nclass = h", fillcolor="#399de5"] ;
219 -> 231 ;
232 [label="x[1] <= 11.9\ngini = 0.482\nsamples = 52\nvalue = [31, 21]\nclass = g", fillcolor="#f7d6bf"] ;
214 -> 232 ;
233 [label="gini = 0.0\nsamples = 11\nvalue = [0, 11]\nclass = h", fillcolor="#399de5"] ;
232 -> 233 ;
234 [label="x[4] <= 0.245\ngini = 0.369\nsamples = 41\nvalue = [31, 10]\nclass = g", fillcolor="#edaa79"] ;
232 -> 234 ;
235 [label="x[4] <= 0.153\ngini = 0.251\nsamples = 34\nvalue = [29, 5]\nclass = g", fillcolor="#e9975b"] ;
234 -> 235 ;
236 [label="gini = 0.0\nsamples = 1\nvalue = [0, 1]\nclass = h", fillcolor="#399de5"] ;
235 -> 236 ;
237 [label="x[0] <= 42.592\ngini = 0.213\nsamples = 33\nvalue = [29, 4]\nclass = g", fillcolor="#e99254"] ;
235 -> 237 ;
238 [label="x[4] <= 0.203\ngini = 0.17\nsamples = 32\nvalue = [29, 3]\nclass = g", fillcolor="#e88e4d"] ;
237 -> 238 ;
239 [label="gini = 0.0\nsamples = 19\nvalue = [19, 0]\nclass = g", fillcolor="#e58139"] ;
238 -> 239 ;
240 [label="x[4] <= 0.213\ngini = 0.355\nsamples = 13\nvalue = [10, 3]\nclass = g", fillcolor="#eda774"] ;
238 -> 240 ;
241 [label="gini = 0.0\nsamples = 3\nvalue = [0, 3]\nclass = h", fillcolor="#399de5"] ;
240 -> 241 ;
242 [label="gini = 0.0\nsamples = 10\nvalue = [10, 0]\nclass = g", fillcolor="#e58139"] ;
240 -> 242 ;
243 [label="gini = 0.0\nsamples = 1\nvalue = [0, 1]\nclass = h", fillcolor="#399de5"] ;
237 -> 243 ;
244 [label="x[7] <= 13.162\ngini = 0.408\nsamples = 7\nvalue = [2, 5]\nclass = h", fillcolor="#88c4ef"] ;
234 -> 244 ;
245 [label="gini = 0.0\nsamples = 5\nvalue = [0, 5]\nclass = h", fillcolor="#399de5"] ;
244 -> 245 ;
246 [label="gini = 0.0\nsamples = 2\nvalue = [2, 0]\nclass = g", fillcolor="#e58139"] ;
244 -> 246 ;
247 [label="x[6] <= 17.464\ngini = 0.174\nsamples = 612\nvalue = [553, 59]\nclass = g", fillcolor="#e88e4e"] ;
213 -> 247 ;
248 [label="x[1] <= 20.697\ngini = 0.085\nsamples = 313\nvalue = [299, 14]\nclass = g", fillcolor="#e68742"] ;
247 -> 248 ;
249 [label="x[5] <= -34.319\ngini = 0.08\nsamples = 311\nvalue = [298, 13]\nclass = g", fillcolor="#e68642"] ;
248 -> 249 ;
250 [label="x[9] <= 201.695\ngini = 0.245\nsamples = 35\nvalue = [30, 5]\nclass = g", fillcolor="#e9965a"] ;
249 -> 250 ;
251 [label="x[2] <= 2.789\ngini = 0.48\nsamples = 10\nvalue = [6, 4]\nclass = g", fillcolor="#f6d5bd"] ;
250 -> 251 ;
252 [label="x[9] <= 183.448\ngini = 0.375\nsamples = 8\nvalue = [6, 2]\nclass = g", fillcolor="#eeab7b"] ;
251 -> 252 ;
253 [label="gini = 0.0\nsamples = 5\nvalue = [5, 0]\nclass = g", fillcolor="#e58139"] ;
252 -> 253 ;
254 [label="x[1] <= 16.058\ngini = 0.444\nsamples = 3\nvalue = [1, 2]\nclass = h", fillcolor="#9ccef2"] ;
252 -> 254 ;
255 [label="gini = 0.0\nsamples = 2\nvalue = [0, 2]\nclass = h", fillcolor="#399de5"] ;
254 -> 255 ;
256 [label="gini = 0.0\nsamples = 1\nvalue = [1, 0]\nclass = g", fillcolor="#e58139"] ;
254 -> 256 ;
257 [label="gini = 0.0\nsamples = 2\nvalue = [0, 2]\nclass = h", fillcolor="#399de5"] ;
251 -> 257 ;
258 [label="x[8] <= 6.8\ngini = 0.077\nsamples = 25\nvalue = [24, 1]\nclass = g", fillcolor="#e68641"] ;
250 -> 258 ;
259 [label="gini = 0.0\nsamples = 23\nvalue = [23, 0]\nclass = g", fillcolor="#e58139"] ;
258 -> 259 ;
260 [label="x[0] <= 50.905\ngini = 0.5\nsamples = 2\nvalue = [1, 1]\nclass = g", fillcolor="#ffffff"] ;
258 -> 260 ;
261 [label="gini = 0.0\nsamples = 1\nvalue = [1, 0]\nclass = g", fillcolor="#e58139"] ;
260 -> 261 ;
262 [label="gini = 0.0\nsamples = 1\nvalue = [0, 1]\nclass = h", fillcolor="#399de5"] ;
260 -> 262 ;
263 [label="x[7] <= -17.987\ngini = 0.056\nsamples = 276\nvalue = [268, 8]\nclass = g", fillcolor="#e6853f"] ;
249 -> 263 ;
264 [label="gini = 0.0\nsamples = 1\nvalue = [0, 1]\nclass = h", fillcolor="#399de5"] ;
263 -> 264 ;
265 [label="x[0] <= 24.537\ngini = 0.05\nsamples = 275\nvalue = [268, 7]\nclass = g", fillcolor="#e6843e"] ;
263 -> 265 ;
266 [label="x[5] <= 37.995\ngini = 0.194\nsamples = 46\nvalue = [41, 5]\nclass = g", fillcolor="#e89051"] ;
265 -> 266 ;
267 [label="x[0] <= 24.417\ngini = 0.162\nsamples = 45\nvalue = [41, 4]\nclass = g", fillcolor="#e88d4c"] ;
266 -> 267 ;
268 [label="x[1] <= 12.389\ngini = 0.127\nsamples = 44\nvalue = [41, 3]\nclass = g", fillcolor="#e78a47"] ;
267 -> 268 ;
269 [label="x[3] <= 0.492\ngini = 0.5\nsamples = 4\nvalue = [2, 2]\nclass = g", fillcolor="#ffffff"] ;
268 -> 269 ;
270 [label="gini = 0.0\nsamples = 2\nvalue = [0, 2]\nclass = h", fillcolor="#399de5"] ;
269 -> 270 ;
271 [label="gini = 0.0\nsamples = 2\nvalue = [2, 0]\nclass = g", fillcolor="#e58139"] ;
269 -> 271 ;
272 [label="x[2] <= 2.3\ngini = 0.049\nsamples = 40\nvalue = [39, 1]\nclass = g", fillcolor="#e6843e"] ;
268 -> 272 ;
273 [label="x[4] <= 0.284\ngini = 0.5\nsamples = 2\nvalue = [1, 1]\nclass = g", fillcolor="#ffffff"] ;
272 -> 273 ;
274 [label="gini = 0.0\nsamples = 1\nvalue = [0, 1]\nclass = h", fillcolor="#399de5"] ;
273 -> 274 ;
275 [label="gini = 0.0\nsamples = 1\nvalue = [1, 0]\nclass = g", fillcolor="#e58139"] ;
273 -> 275 ;
276 [label="gini = 0.0\nsamples = 38\nvalue = [38, 0]\nclass = g", fillcolor="#e58139"] ;
272 -> 276 ;
277 [label="gini = 0.0\nsamples = 1\nvalue = [0, 1]\nclass = h", fillcolor="#399de5"] ;
267 -> 277 ;
278 [label="gini = 0.0\nsamples = 1\nvalue = [0, 1]\nclass = h", fillcolor="#399de5"] ;
266 -> 278 ;
279 [label="x[5] <= 49.071\ngini = 0.017\nsamples = 229\nvalue = [227, 2]\nclass = g", fillcolor="#e5823b"] ;
265 -> 279 ;
280 [label="x[8] <= 8.722\ngini = 0.009\nsamples = 217\nvalue = [216, 1]\nclass = g", fillcolor="#e5823a"] ;
279 -> 280 ;
281 [label="gini = 0.0\nsamples = 205\nvalue = [205, 0]\nclass = g", fillcolor="#e58139"] ;
280 -> 281 ;
282 [label="x[8] <= 8.748\ngini = 0.153\nsamples = 12\nvalue = [11, 1]\nclass = g", fillcolor="#e78c4b"] ;
280 -> 282 ;
283 [label="gini = 0.0\nsamples = 1\nvalue = [0, 1]\nclass = h", fillcolor="#399de5"] ;
282 -> 283 ;
284 [label="gini = 0.0\nsamples = 11\nvalue = [11, 0]\nclass = g", fillcolor="#e58139"] ;
282 -> 284 ;
285 [label="x[5] <= 50.564\ngini = 0.153\nsamples = 12\nvalue = [11, 1]\nclass = g", fillcolor="#e78c4b"] ;
279 -> 285 ;
286 [label="gini = 0.0\nsamples = 1\nvalue = [0, 1]\nclass = h", fillcolor="#399de5"] ;
285 -> 286 ;
287 [label="gini = 0.0\nsamples = 11\nvalue = [11, 0]\nclass = g", fillcolor="#e58139"] ;
285 -> 287 ;
288 [label="x[1] <= 20.8\ngini = 0.5\nsamples = 2\nvalue = [1, 1]\nclass = g", fillcolor="#ffffff"] ;
248 -> 288 ;
289 [label="gini = 0.0\nsamples = 1\nvalue = [0, 1]\nclass = h", fillcolor="#399de5"] ;
288 -> 289 ;
290 [label="gini = 0.0\nsamples = 1\nvalue = [1, 0]\nclass = g", fillcolor="#e58139"] ;
288 -> 290 ;
291 [label="x[0] <= 25.837\ngini = 0.256\nsamples = 299\nvalue = [254, 45]\nclass = g", fillcolor="#ea975c"] ;
247 -> 291 ;
292 [label="x[6] <= 22.214\ngini = 0.473\nsamples = 13\nvalue = [5, 8]\nclass = h", fillcolor="#b5daf5"] ;
291 -> 292 ;
293 [label="x[7] <= 10.756\ngini = 0.408\nsamples = 7\nvalue = [5, 2]\nclass = g", fillcolor="#efb388"] ;
292 -> 293 ;
294 [label="x[6] <= 17.698\ngini = 0.278\nsamples = 6\nvalue = [5, 1]\nclass = g", fillcolor="#ea9a61"] ;
293 -> 294 ;
295 [label="gini = 0.0\nsamples = 1\nvalue = [0, 1]\nclass = h", fillcolor="#399de5"] ;
294 -> 295 ;
296 [label="gini = 0.0\nsamples = 5\nvalue = [5, 0]\nclass = g", fillcolor="#e58139"] ;
294 -> 296 ;
297 [label="gini = 0.0\nsamples = 1\nvalue = [0, 1]\nclass = h", fillcolor="#399de5"] ;
293 -> 297 ;
298 [label="gini = 0.0\nsamples = 6\nvalue = [0, 6]\nclass = h", fillcolor="#399de5"] ;
292 -> 298 ;
299 [label="x[2] <= 2.689\ngini = 0.225\nsamples = 286\nvalue = [249, 37]\nclass = g", fillcolor="#e99456"] ;
291 -> 299 ;
300 [label="x[8] <= 0.025\ngini = 0.108\nsamples = 122\nvalue = [115, 7]\nclass = g", fillcolor="#e78945"] ;
299 -> 300 ;
301 [label="gini = 0.0\nsamples = 1\nvalue = [0, 1]\nclass = h", fillcolor="#399de5"] ;
300 -> 301 ;
302 [label="x[3] <= 0.487\ngini = 0.094\nsamples = 121\nvalue = [115, 6]\nclass = g", fillcolor="#e68843"] ;
300 -> 302 ;
303 [label="x[2] <= 2.339\ngini = 0.068\nsamples = 114\nvalue = [110, 4]\nclass = g", fillcolor="#e68640"] ;
302 -> 303 ;
304 [label="x[1] <= 13.135\ngini = 0.5\nsamples = 2\nvalue = [1, 1]\nclass = g", fillcolor="#ffffff"] ;
303 -> 304 ;
305 [label="gini = 0.0\nsamples = 1\nvalue = [1, 0]\nclass = g", fillcolor="#e58139"] ;
304 -> 305 ;
306 [label="gini = 0.0\nsamples = 1\nvalue = [0, 1]\nclass = h", fillcolor="#399de5"] ;
304 -> 306 ;
307 [label="x[1] <= 9.008\ngini = 0.052\nsamples = 112\nvalue = [109, 3]\nclass = g", fillcolor="#e6843e"] ;
303 -> 307 ;
308 [label="x[6] <= 20.851\ngini = 0.444\nsamples = 3\nvalue = [2, 1]\nclass = g", fillcolor="#f2c09c"] ;
307 -> 308 ;
309 [label="gini = 0.0\nsamples = 1\nvalue = [0, 1]\nclass = h", fillcolor="#399de5"] ;
308 -> 309 ;
310 [label="gini = 0.0\nsamples = 2\nvalue = [2, 0]\nclass = g", fillcolor="#e58139"] ;
308 -> 310 ;
311 [label="x[8] <= 0.234\ngini = 0.036\nsamples = 109\nvalue = [107, 2]\nclass = g", fillcolor="#e5833d"] ;
307 -> 311 ;
312 [label="x[3] <= 0.374\ngini = 0.375\nsamples = 4\nvalue = [3, 1]\nclass = g", fillcolor="#eeab7b"] ;
311 -> 312 ;
313 [label="gini = 0.0\nsamples = 1\nvalue = [0, 1]\nclass = h", fillcolor="#399de5"] ;
312 -> 313 ;
314 [label="gini = 0.0\nsamples = 3\nvalue = [3, 0]\nclass = g", fillcolor="#e58139"] ;
312 -> 314 ;
315 [label="x[4] <= 0.279\ngini = 0.019\nsamples = 105\nvalue = [104, 1]\nclass = g", fillcolor="#e5823b"] ;
311 -> 315 ;
316 [label="gini = 0.0\nsamples = 97\nvalue = [97, 0]\nclass = g", fillcolor="#e58139"] ;
315 -> 316 ;
317 [label="x[3] <= 0.428\ngini = 0.219\nsamples = 8\nvalue = [7, 1]\nclass = g", fillcolor="#e99355"] ;
315 -> 317 ;
318 [label="gini = 0.0\nsamples = 1\nvalue = [0, 1]\nclass = h", fillcolor="#399de5"] ;
317 -> 318 ;
319 [label="gini = 0.0\nsamples = 7\nvalue = [7, 0]\nclass = g", fillcolor="#e58139"] ;
317 -> 319 ;
320 [label="x[2] <= 2.564\ngini = 0.408\nsamples = 7\nvalue = [5, 2]\nclass = g", fillcolor="#efb388"] ;
302 -> 320 ;
321 [label="gini = 0.0\nsamples = 4\nvalue = [4, 0]\nclass = g", fillcolor="#e58139"] ;
320 -> 321 ;
322 [label="x[1] <= 11.215\ngini = 0.444\nsamples = 3\nvalue = [1, 2]\nclass = h", fillcolor="#9ccef2"] ;
320 -> 322 ;
323 [label="gini = 0.0\nsamples = 1\nvalue = [1, 0]\nclass = g", fillcolor="#e58139"] ;
322 -> 323 ;
324 [label="gini = 0.0\nsamples = 2\nvalue = [0, 2]\nclass = h", fillcolor="#399de5"] ;
322 -> 324 ;
325 [label="x[0] <= 29.647\ngini = 0.299\nsamples = 164\nvalue = [134, 30]\nclass = g", fillcolor="#eb9d65"] ;
299 -> 325 ;
326 [label="x[3] <= 0.445\ngini = 0.42\nsamples = 10\nvalue = [3, 7]\nclass = h", fillcolor="#8ec7f0"] ;
325 -> 326 ;
327 [label="x[9] <= 141.305\ngini = 0.219\nsamples = 8\nvalue = [1, 7]\nclass = h", fillcolor="#55abe9"] ;
326 -> 327 ;
328 [label="gini = 0.0\nsamples = 1\nvalue = [1, 0]\nclass = g", fillcolor="#e58139"] ;
327 -> 328 ;
329 [label="gini = 0.0\nsamples = 7\nvalue = [0, 7]\nclass = h", fillcolor="#399de5"] ;
327 -> 329 ;
330 [label="gini = 0.0\nsamples = 2\nvalue = [2, 0]\nclass = g", fillcolor="#e58139"] ;
326 -> 330 ;
331 [label="x[1] <= 12.06\ngini = 0.254\nsamples = 154\nvalue = [131, 23]\nclass = g", fillcolor="#ea975c"] ;
325 -> 331 ;
332 [label="x[2] <= 2.724\ngini = 0.49\nsamples = 14\nvalue = [6, 8]\nclass = h", fillcolor="#cee6f8"] ;
331 -> 332 ;
333 [label="gini = 0.0\nsamples = 4\nvalue = [4, 0]\nclass = g", fillcolor="#e58139"] ;
332 -> 333 ;
334 [label="x[5] <= -13.364\ngini = 0.32\nsamples = 10\nvalue = [2, 8]\nclass = h", fillcolor="#6ab6ec"] ;
332 -> 334 ;
335 [label="x[6] <= 64.605\ngini = 0.444\nsamples = 3\nvalue = [2, 1]\nclass = g", fillcolor="#f2c09c"] ;
334 -> 335 ;
336 [label="gini = 0.0\nsamples = 2\nvalue = [2, 0]\nclass = g", fillcolor="#e58139"] ;
335 -> 336 ;
337 [label="gini = 0.0\nsamples = 1\nvalue = [0, 1]\nclass = h", fillcolor="#399de5"] ;
335 -> 337 ;
338 [label="gini = 0.0\nsamples = 7\nvalue = [0, 7]\nclass = h", fillcolor="#399de5"] ;
334 -> 338 ;
339 [label="x[4] <= 0.24\ngini = 0.191\nsamples = 140\nvalue = [125, 15]\nclass = g", fillcolor="#e89051"] ;
331 -> 339 ;
340 [label="x[6] <= 85.864\ngini = 0.154\nsamples = 131\nvalue = [120, 11]\nclass = g", fillcolor="#e78d4b"] ;
339 -> 340 ;
341 [label="x[5] <= 104.522\ngini = 0.142\nsamples = 130\nvalue = [120, 10]\nclass = g", fillcolor="#e78c49"] ;
340 -> 341 ;
342 [label="x[9] <= 232.362\ngini = 0.13\nsamples = 129\nvalue = [120, 9]\nclass = g", fillcolor="#e78a48"] ;
341 -> 342 ;
343 [label="x[1] <= 13.438\ngini = 0.026\nsamples = 77\nvalue = [76, 1]\nclass = g", fillcolor="#e5833c"] ;
342 -> 343 ;
344 [label="x[4] <= 0.19\ngini = 0.32\nsamples = 5\nvalue = [4, 1]\nclass = g", fillcolor="#eca06a"] ;
343 -> 344 ;
345 [label="gini = 0.0\nsamples = 1\nvalue = [0, 1]\nclass = h", fillcolor="#399de5"] ;
344 -> 345 ;
346 [label="gini = 0.0\nsamples = 4\nvalue = [4, 0]\nclass = g", fillcolor="#e58139"] ;
344 -> 346 ;
347 [label="gini = 0.0\nsamples = 72\nvalue = [72, 0]\nclass = g", fillcolor="#e58139"] ;
343 -> 347 ;
348 [label="x[2] <= 2.776\ngini = 0.26\nsamples = 52\nvalue = [44, 8]\nclass = g", fillcolor="#ea985d"] ;
342 -> 348 ;
349 [label="x[0] <= 64.355\ngini = 0.5\nsamples = 12\nvalue = [6, 6]\nclass = g", fillcolor="#ffffff"] ;
348 -> 349 ;
350 [label="x[6] <= 23.871\ngini = 0.375\nsamples = 8\nvalue = [2, 6]\nclass = h", fillcolor="#7bbeee"] ;
349 -> 350 ;
351 [label="x[6] <= 19.786\ngini = 0.444\nsamples = 3\nvalue = [2, 1]\nclass = g", fillcolor="#f2c09c"] ;
350 -> 351 ;
352 [label="gini = 0.0\nsamples = 1\nvalue = [0, 1]\nclass = h", fillcolor="#399de5"] ;
351 -> 352 ;
353 [label="gini = 0.0\nsamples = 2\nvalue = [2, 0]\nclass = g", fillcolor="#e58139"] ;
351 -> 353 ;
354 [label="gini = 0.0\nsamples = 5\nvalue = [0, 5]\nclass = h", fillcolor="#399de5"] ;
350 -> 354 ;
355 [label="gini = 0.0\nsamples = 4\nvalue = [4, 0]\nclass = g", fillcolor="#e58139"] ;
349 -> 355 ;
356 [label="x[9] <= 249.183\ngini = 0.095\nsamples = 40\nvalue = [38, 2]\nclass = g", fillcolor="#e68843"] ;
348 -> 356 ;
357 [label="x[9] <= 241.594\ngini = 0.444\nsamples = 6\nvalue = [4, 2]\nclass = g", fillcolor="#f2c09c"] ;
356 -> 357 ;
358 [label="gini = 0.0\nsamples = 4\nvalue = [4, 0]\nclass = g", fillcolor="#e58139"] ;
357 -> 358 ;
359 [label="gini = 0.0\nsamples = 2\nvalue = [0, 2]\nclass = h", fillcolor="#399de5"] ;
357 -> 359 ;
360 [label="gini = 0.0\nsamples = 34\nvalue = [34, 0]\nclass = g", fillcolor="#e58139"] ;
356 -> 360 ;
361 [label="gini = 0.0\nsamples = 1\nvalue = [0, 1]\nclass = h", fillcolor="#399de5"] ;
341 -> 361 ;
362 [label="gini = 0.0\nsamples = 1\nvalue = [0, 1]\nclass = h", fillcolor="#399de5"] ;
340 -> 362 ;
363 [label="x[4] <= 0.245\ngini = 0.494\nsamples = 9\nvalue = [5, 4]\nclass = g", fillcolor="#fae6d7"] ;
339 -> 363 ;
364 [label="gini = 0.0\nsamples = 2\nvalue = [0, 2]\nclass = h", fillcolor="#399de5"] ;
363 -> 364 ;
365 [label="x[5] <= 10.516\ngini = 0.408\nsamples = 7\nvalue = [5, 2]\nclass = g", fillcolor="#efb388"] ;
363 -> 365 ;
366 [label="gini = 0.0\nsamples = 2\nvalue = [0, 2]\nclass = h", fillcolor="#399de5"] ;
365 -> 366 ;
367 [label="gini = 0.0\nsamples = 5\nvalue = [5, 0]\nclass = g", fillcolor="#e58139"] ;
365 -> 367 ;
368 [label="x[7] <= -22.79\ngini = 0.32\nsamples = 5\nvalue = [1, 4]\nclass = h", fillcolor="#6ab6ec"] ;
212 -> 368 ;
369 [label="gini = 0.0\nsamples = 1\nvalue = [1, 0]\nclass = g", fillcolor="#e58139"] ;
368 -> 369 ;
370 [label="gini = 0.0\nsamples = 4\nvalue = [0, 4]\nclass = h", fillcolor="#399de5"] ;
368 -> 370 ;
371 [label="x[9] <= 190.549\ngini = 0.44\nsamples = 98\nvalue = [66.0, 32.0]\nclass = g", fillcolor="#f2be99"] ;
211 -> 371 ;
372 [label="x[0] <= 36.819\ngini = 0.483\nsamples = 22\nvalue = [9, 13]\nclass = h", fillcolor="#c2e1f7"] ;
371 -> 372 ;
373 [label="x[8] <= 4.165\ngini = 0.426\nsamples = 13\nvalue = [9, 4]\nclass = g", fillcolor="#f1b991"] ;
372 -> 373 ;
374 [label="gini = 0.0\nsamples = 4\nvalue = [4, 0]\nclass = g", fillcolor="#e58139"] ;
373 -> 374 ;
375 [label="x[8] <= 8.252\ngini = 0.494\nsamples = 9\nvalue = [5, 4]\nclass = g", fillcolor="#fae6d7"] ;
373 -> 375 ;
376 [label="x[4] <= 0.171\ngini = 0.32\nsamples = 5\nvalue = [1, 4]\nclass = h", fillcolor="#6ab6ec"] ;
375 -> 376 ;
377 [label="gini = 0.0\nsamples = 1\nvalue = [1, 0]\nclass = g", fillcolor="#e58139"] ;
376 -> 377 ;
378 [label="gini = 0.0\nsamples = 4\nvalue = [0, 4]\nclass = h", fillcolor="#399de5"] ;
376 -> 378 ;
379 [label="gini = 0.0\nsamples = 4\nvalue = [4, 0]\nclass = g", fillcolor="#e58139"] ;
375 -> 379 ;
380 [label="gini = 0.0\nsamples = 9\nvalue = [0, 9]\nclass = h", fillcolor="#399de5"] ;
372 -> 380 ;
381 [label="x[6] <= 64.355\ngini = 0.375\nsamples = 76\nvalue = [57, 19]\nclass = g", fillcolor="#eeab7b"] ;
371 -> 381 ;
382 [label="x[4] <= 0.192\ngini = 0.333\nsamples = 71\nvalue = [56.0, 15.0]\nclass = g", fillcolor="#eca36e"] ;
381 -> 382 ;
383 [label="x[7] <= 23.892\ngini = 0.444\nsamples = 30\nvalue = [20, 10]\nclass = g", fillcolor="#f2c09c"] ;
382 -> 383 ;
384 [label="x[4] <= 0.182\ngini = 0.408\nsamples = 28\nvalue = [20, 8]\nclass = g", fillcolor="#efb388"] ;
383 -> 384 ;
385 [label="x[2] <= 3.08\ngini = 0.308\nsamples = 21\nvalue = [17, 4]\nclass = g", fillcolor="#eb9f68"] ;
384 -> 385 ;
386 [label="x[0] <= 27.184\ngini = 0.124\nsamples = 15\nvalue = [14, 1]\nclass = g", fillcolor="#e78a47"] ;
385 -> 386 ;
387 [label="gini = 0.0\nsamples = 1\nvalue = [0, 1]\nclass = h", fillcolor="#399de5"] ;
386 -> 387 ;
388 [label="gini = 0.0\nsamples = 14\nvalue = [14, 0]\nclass = g", fillcolor="#e58139"] ;
386 -> 388 ;
389 [label="x[7] <= -9.696\ngini = 0.5\nsamples = 6\nvalue = [3, 3]\nclass = g", fillcolor="#ffffff"] ;
385 -> 389 ;
390 [label="gini = 0.0\nsamples = 2\nvalue = [0, 2]\nclass = h", fillcolor="#399de5"] ;
389 -> 390 ;
391 [label="x[6] <= -6.295\ngini = 0.375\nsamples = 4\nvalue = [3, 1]\nclass = g", fillcolor="#eeab7b"] ;
389 -> 391 ;
392 [label="gini = 0.0\nsamples = 1\nvalue = [0, 1]\nclass = h", fillcolor="#399de5"] ;
391 -> 392 ;
393 [label="gini = 0.0\nsamples = 3\nvalue = [3, 0]\nclass = g", fillcolor="#e58139"] ;
391 -> 393 ;
394 [label="x[2] <= 3.151\ngini = 0.49\nsamples = 7\nvalue = [3, 4]\nclass = h", fillcolor="#cee6f8"] ;
384 -> 394 ;
395 [label="gini = 0.0\nsamples = 4\nvalue = [0, 4]\nclass = h", fillcolor="#399de5"] ;
394 -> 395 ;
396 [label="gini = 0.0\nsamples = 3\nvalue = [3, 0]\nclass = g", fillcolor="#e58139"] ;
394 -> 396 ;
397 [label="gini = 0.0\nsamples = 2\nvalue = [0, 2]\nclass = h", fillcolor="#399de5"] ;
383 -> 397 ;
398 [label="x[8] <= 0.045\ngini = 0.214\nsamples = 41\nvalue = [36, 5]\nclass = g", fillcolor="#e99254"] ;
382 -> 398 ;
399 [label="gini = 0.0\nsamples = 1\nvalue = [0, 1]\nclass = h", fillcolor="#399de5"] ;
398 -> 399 ;
400 [label="x[1] <= 22.28\ngini = 0.18\nsamples = 40\nvalue = [36, 4]\nclass = g", fillcolor="#e88f4f"] ;
398 -> 400 ;
401 [label="x[8] <= 2.531\ngini = 0.469\nsamples = 8\nvalue = [5, 3]\nclass = g", fillcolor="#f5cdb0"] ;
400 -> 401 ;
402 [label="gini = 0.0\nsamples = 4\nvalue = [4, 0]\nclass = g", fillcolor="#e58139"] ;
401 -> 402 ;
403 [label="x[0] <= 24.742\ngini = 0.375\nsamples = 4\nvalue = [1, 3]\nclass = h", fillcolor="#7bbeee"] ;
401 -> 403 ;
404 [label="gini = 0.0\nsamples = 1\nvalue = [1, 0]\nclass = g", fillcolor="#e58139"] ;
403 -> 404 ;
405 [label="gini = 0.0\nsamples = 3\nvalue = [0, 3]\nclass = h", fillcolor="#399de5"] ;
403 -> 405 ;
406 [label="x[7] <= -18.652\ngini = 0.061\nsamples = 32\nvalue = [31, 1]\nclass = g", fillcolor="#e6853f"] ;
400 -> 406 ;
407 [label="x[7] <= -19.923\ngini = 0.245\nsamples = 7\nvalue = [6, 1]\nclass = g", fillcolor="#e9965a"] ;
406 -> 407 ;
408 [label="gini = 0.0\nsamples = 6\nvalue = [6, 0]\nclass = g", fillcolor="#e58139"] ;
407 -> 408 ;
409 [label="gini = 0.0\nsamples = 1\nvalue = [0, 1]\nclass = h", fillcolor="#399de5"] ;
407 -> 409 ;
410 [label="gini = 0.0\nsamples = 25\nvalue = [25, 0]\nclass = g", fillcolor="#e58139"] ;
406 -> 410 ;
411 [label="x[8] <= 1.479\ngini = 0.32\nsamples = 5\nvalue = [1, 4]\nclass = h", fillcolor="#6ab6ec"] ;
381 -> 411 ;
412 [label="gini = 0.0\nsamples = 1\nvalue = [1, 0]\nclass = g", fillcolor="#e58139"] ;
411 -> 412 ;
413 [label="gini = 0.0\nsamples = 4\nvalue = [0, 4]\nclass = h", fillcolor="#399de5"] ;
411 -> 413 ;
414 [label="x[4] <= 0.039\ngini = 0.415\nsamples = 17\nvalue = [5, 12]\nclass = h", fillcolor="#8bc6f0"] ;
30 -> 414 ;
415 [label="gini = 0.0\nsamples = 3\nvalue = [3, 0]\nclass = g", fillcolor="#e58139"] ;
414 -> 415 ;
416 [label="x[5] <= 22.245\ngini = 0.245\nsamples = 14\nvalue = [2, 12]\nclass = h", fillcolor="#5aade9"] ;
414 -> 416 ;
417 [label="gini = 0.0\nsamples = 11\nvalue = [0, 11]\nclass = h", fillcolor="#399de5"] ;
416 -> 417 ;
418 [label="x[8] <= 5.298\ngini = 0.444\nsamples = 3\nvalue = [2, 1]\nclass = g", fillcolor="#f2c09c"] ;
416 -> 418 ;
419 [label="gini = 0.0\nsamples = 1\nvalue = [0, 1]\nclass = h", fillcolor="#399de5"] ;
418 -> 419 ;
420 [label="gini = 0.0\nsamples = 2\nvalue = [2, 0]\nclass = g", fillcolor="#e58139"] ;
418 -> 420 ;
421 [label="x[2] <= 2.558\ngini = 0.45\nsamples = 342\nvalue = [225.0, 117.0]\nclass = g", fillcolor="#f3c3a0"] ;
3 -> 421 ;
422 [label="x[4] <= 0.398\ngini = 0.365\nsamples = 279\nvalue = [212, 67]\nclass = g", fillcolor="#eda978"] ;
421 -> 422 ;
423 [label="x[7] <= -11.482\ngini = 0.292\nsamples = 214\nvalue = [176, 38]\nclass = g", fillcolor="#eb9c64"] ;
422 -> 423 ;
424 [label="x[1] <= 14.268\ngini = 0.463\nsamples = 11\nvalue = [4, 7]\nclass = h", fillcolor="#aad5f4"] ;
423 -> 424 ;
425 [label="gini = 0.0\nsamples = 5\nvalue = [0, 5]\nclass = h", fillcolor="#399de5"] ;
424 -> 425 ;
426 [label="x[5] <= 10.927\ngini = 0.444\nsamples = 6\nvalue = [4, 2]\nclass = g", fillcolor="#f2c09c"] ;
424 -> 426 ;
427 [label="x[6] <= -16.198\ngini = 0.444\nsamples = 3\nvalue = [1, 2]\nclass = h", fillcolor="#9ccef2"] ;
426 -> 427 ;
428 [label="gini = 0.0\nsamples = 1\nvalue = [1, 0]\nclass = g", fillcolor="#e58139"] ;
427 -> 428 ;
429 [label="gini = 0.0\nsamples = 2\nvalue = [0, 2]\nclass = h", fillcolor="#399de5"] ;
427 -> 429 ;
430 [label="gini = 0.0\nsamples = 3\nvalue = [3, 0]\nclass = g", fillcolor="#e58139"] ;
426 -> 430 ;
431 [label="x[2] <= 2.435\ngini = 0.259\nsamples = 203\nvalue = [172, 31]\nclass = g", fillcolor="#ea985d"] ;
423 -> 431 ;
432 [label="x[4] <= 0.305\ngini = 0.154\nsamples = 143\nvalue = [131, 12]\nclass = g", fillcolor="#e78d4b"] ;
431 -> 432 ;
433 [label="x[9] <= 92.652\ngini = 0.325\nsamples = 44\nvalue = [35, 9]\nclass = g", fillcolor="#eca16c"] ;
432 -> 433 ;
434 [label="gini = 0.0\nsamples = 2\nvalue = [0, 2]\nclass = h", fillcolor="#399de5"] ;
433 -> 434 ;
435 [label="x[8] <= 4.362\ngini = 0.278\nsamples = 42\nvalue = [35, 7]\nclass = g", fillcolor="#ea9a61"] ;
433 -> 435 ;
436 [label="gini = 0.0\nsamples = 19\nvalue = [19, 0]\nclass = g", fillcolor="#e58139"] ;
435 -> 436 ;
437 [label="x[8] <= 4.825\ngini = 0.423\nsamples = 23\nvalue = [16, 7]\nclass = g", fillcolor="#f0b890"] ;
435 -> 437 ;
438 [label="gini = 0.0\nsamples = 2\nvalue = [0, 2]\nclass = h", fillcolor="#399de5"] ;
437 -> 438 ;
439 [label="x[2] <= 2.189\ngini = 0.363\nsamples = 21\nvalue = [16, 5]\nclass = g", fillcolor="#eda877"] ;
437 -> 439 ;
440 [label="gini = 0.0\nsamples = 1\nvalue = [0, 1]\nclass = h", fillcolor="#399de5"] ;
439 -> 440 ;
441 [label="x[6] <= -20.955\ngini = 0.32\nsamples = 20\nvalue = [16, 4]\nclass = g", fillcolor="#eca06a"] ;
439 -> 441 ;
442 [label="gini = 0.0\nsamples = 1\nvalue = [0, 1]\nclass = h", fillcolor="#399de5"] ;
441 -> 442 ;
443 [label="x[1] <= 6.268\ngini = 0.266\nsamples = 19\nvalue = [16, 3]\nclass = g", fillcolor="#ea995e"] ;
441 -> 443 ;
444 [label="gini = 0.0\nsamples = 1\nvalue = [0, 1]\nclass = h", fillcolor="#399de5"] ;
443 -> 444 ;
445 [label="x[3] <= 0.603\ngini = 0.198\nsamples = 18\nvalue = [16, 2]\nclass = g", fillcolor="#e89152"] ;
443 -> 445 ;
446 [label="x[1] <= 7.912\ngini = 0.111\nsamples = 17\nvalue = [16, 1]\nclass = g", fillcolor="#e78945"] ;
445 -> 446 ;
447 [label="x[2] <= 2.38\ngini = 0.444\nsamples = 3\nvalue = [2, 1]\nclass = g", fillcolor="#f2c09c"] ;
446 -> 447 ;
448 [label="gini = 0.0\nsamples = 2\nvalue = [2, 0]\nclass = g", fillcolor="#e58139"] ;
447 -> 448 ;
449 [label="gini = 0.0\nsamples = 1\nvalue = [0, 1]\nclass = h", fillcolor="#399de5"] ;
447 -> 449 ;
450 [label="gini = 0.0\nsamples = 14\nvalue = [14, 0]\nclass = g", fillcolor="#e58139"] ;
446 -> 450 ;
451 [label="gini = 0.0\nsamples = 1\nvalue = [0, 1]\nclass = h", fillcolor="#399de5"] ;
445 -> 451 ;
452 [label="x[7] <= 12.806\ngini = 0.059\nsamples = 99\nvalue = [96, 3]\nclass = g", fillcolor="#e6853f"] ;
432 -> 452 ;
453 [label="x[9] <= 233.166\ngini = 0.04\nsamples = 98\nvalue = [96.0, 2.0]\nclass = g", fillcolor="#e6843d"] ;
452 -> 453 ;
454 [label="gini = 0.0\nsamples = 89\nvalue = [89, 0]\nclass = g", fillcolor="#e58139"] ;
453 -> 454 ;
455 [label="x[1] <= 7.781\ngini = 0.346\nsamples = 9\nvalue = [7, 2]\nclass = g", fillcolor="#eca572"] ;
453 -> 455 ;
456 [label="gini = 0.0\nsamples = 2\nvalue = [0, 2]\nclass = h", fillcolor="#399de5"] ;
455 -> 456 ;
457 [label="gini = 0.0\nsamples = 7\nvalue = [7, 0]\nclass = g", fillcolor="#e58139"] ;
455 -> 457 ;
458 [label="gini = 0.0\nsamples = 1\nvalue = [0, 1]\nclass = h", fillcolor="#399de5"] ;
452 -> 458 ;
459 [label="x[3] <= 0.591\ngini = 0.433\nsamples = 60\nvalue = [41, 19]\nclass = g", fillcolor="#f1bb95"] ;
431 -> 459 ;
460 [label="x[9] <= 88.527\ngini = 0.3\nsamples = 49\nvalue = [40, 9]\nclass = g", fillcolor="#eb9d66"] ;
459 -> 460 ;
461 [label="gini = 0.0\nsamples = 2\nvalue = [0, 2]\nclass = h", fillcolor="#399de5"] ;
460 -> 461 ;
462 [label="x[0] <= 17.274\ngini = 0.254\nsamples = 47\nvalue = [40, 7]\nclass = g", fillcolor="#ea975c"] ;
460 -> 462 ;
463 [label="gini = 0.0\nsamples = 2\nvalue = [0, 2]\nclass = h", fillcolor="#399de5"] ;
462 -> 463 ;
464 [label="x[1] <= 12.694\ngini = 0.198\nsamples = 45\nvalue = [40, 5]\nclass = g", fillcolor="#e89152"] ;
462 -> 464 ;
465 [label="gini = 0.0\nsamples = 30\nvalue = [30, 0]\nclass = g", fillcolor="#e58139"] ;
464 -> 465 ;
466 [label="x[2] <= 2.452\ngini = 0.444\nsamples = 15\nvalue = [10, 5]\nclass = g", fillcolor="#f2c09c"] ;
464 -> 466 ;
467 [label="gini = 0.0\nsamples = 2\nvalue = [0, 2]\nclass = h", fillcolor="#399de5"] ;
466 -> 467 ;
468 [label="x[9] <= 231.927\ngini = 0.355\nsamples = 13\nvalue = [10, 3]\nclass = g", fillcolor="#eda774"] ;
466 -> 468 ;
469 [label="x[1] <= 17.431\ngini = 0.18\nsamples = 10\nvalue = [9, 1]\nclass = g", fillcolor="#e88f4f"] ;
468 -> 469 ;
470 [label="gini = 0.0\nsamples = 9\nvalue = [9, 0]\nclass = g", fillcolor="#e58139"] ;
469 -> 470 ;
471 [label="gini = 0.0\nsamples = 1\nvalue = [0, 1]\nclass = h", fillcolor="#399de5"] ;
469 -> 471 ;
472 [label="x[9] <= 257.239\ngini = 0.444\nsamples = 3\nvalue = [1, 2]\nclass = h", fillcolor="#9ccef2"] ;
468 -> 472 ;
473 [label="gini = 0.0\nsamples = 2\nvalue = [0, 2]\nclass = h", fillcolor="#399de5"] ;
472 -> 473 ;
474 [label="gini = 0.0\nsamples = 1\nvalue = [1, 0]\nclass = g", fillcolor="#e58139"] ;
472 -> 474 ;
475 [label="x[2] <= 2.548\ngini = 0.165\nsamples = 11\nvalue = [1, 10]\nclass = h", fillcolor="#4da7e8"] ;
459 -> 475 ;
476 [label="gini = 0.0\nsamples = 10\nvalue = [0, 10]\nclass = h", fillcolor="#399de5"] ;
475 -> 476 ;
477 [label="gini = 0.0\nsamples = 1\nvalue = [1, 0]\nclass = g", fillcolor="#e58139"] ;
475 -> 477 ;
478 [label="x[6] <= 6.161\ngini = 0.494\nsamples = 65\nvalue = [36, 29]\nclass = g", fillcolor="#fae7d9"] ;
422 -> 478 ;
479 [label="x[1] <= 12.424\ngini = 0.375\nsamples = 36\nvalue = [27, 9]\nclass = g", fillcolor="#eeab7b"] ;
478 -> 479 ;
480 [label="x[4] <= 0.417\ngini = 0.327\nsamples = 34\nvalue = [27, 7]\nclass = g", fillcolor="#eca26c"] ;
479 -> 480 ;
481 [label="x[9] <= 204.839\ngini = 0.375\nsamples = 4\nvalue = [1, 3]\nclass = h", fillcolor="#7bbeee"] ;
480 -> 481 ;
482 [label="gini = 0.0\nsamples = 3\nvalue = [0, 3]\nclass = h", fillcolor="#399de5"] ;
481 -> 482 ;
483 [label="gini = 0.0\nsamples = 1\nvalue = [1, 0]\nclass = g", fillcolor="#e58139"] ;
481 -> 483 ;
484 [label="x[2] <= 2.522\ngini = 0.231\nsamples = 30\nvalue = [26, 4]\nclass = g", fillcolor="#e99457"] ;
480 -> 484 ;
485 [label="x[7] <= 11.705\ngini = 0.185\nsamples = 29\nvalue = [26, 3]\nclass = g", fillcolor="#e89050"] ;
484 -> 485 ;
486 [label="x[8] <= 9.453\ngini = 0.133\nsamples = 28\nvalue = [26, 2]\nclass = g", fillcolor="#e78b48"] ;
485 -> 486 ;
487 [label="x[0] <= 11.424\ngini = 0.071\nsamples = 27\nvalue = [26, 1]\nclass = g", fillcolor="#e68641"] ;
486 -> 487 ;
488 [label="gini = 0.0\nsamples = 1\nvalue = [0, 1]\nclass = h", fillcolor="#399de5"] ;
487 -> 488 ;
489 [label="gini = 0.0\nsamples = 26\nvalue = [26, 0]\nclass = g", fillcolor="#e58139"] ;
487 -> 489 ;
490 [label="gini = 0.0\nsamples = 1\nvalue = [0, 1]\nclass = h", fillcolor="#399de5"] ;
486 -> 490 ;
491 [label="gini = 0.0\nsamples = 1\nvalue = [0, 1]\nclass = h", fillcolor="#399de5"] ;
485 -> 491 ;
492 [label="gini = 0.0\nsamples = 1\nvalue = [0, 1]\nclass = h", fillcolor="#399de5"] ;
484 -> 492 ;
493 [label="gini = 0.0\nsamples = 2\nvalue = [0, 2]\nclass = h", fillcolor="#399de5"] ;
479 -> 493 ;
494 [label="x[2] <= 2.29\ngini = 0.428\nsamples = 29\nvalue = [9, 20]\nclass = h", fillcolor="#92c9f1"] ;
478 -> 494 ;
495 [label="x[7] <= 8.746\ngini = 0.444\nsamples = 12\nvalue = [8, 4]\nclass = g", fillcolor="#f2c09c"] ;
494 -> 495 ;
496 [label="x[1] <= 6.19\ngini = 0.32\nsamples = 10\nvalue = [8, 2]\nclass = g", fillcolor="#eca06a"] ;
495 -> 496 ;
497 [label="x[4] <= 0.47\ngini = 0.444\nsamples = 3\nvalue = [1, 2]\nclass = h", fillcolor="#9ccef2"] ;
496 -> 497 ;
498 [label="gini = 0.0\nsamples = 2\nvalue = [0, 2]\nclass = h", fillcolor="#399de5"] ;
497 -> 498 ;
499 [label="gini = 0.0\nsamples = 1\nvalue = [1, 0]\nclass = g", fillcolor="#e58139"] ;
497 -> 499 ;
500 [label="gini = 0.0\nsamples = 7\nvalue = [7, 0]\nclass = g", fillcolor="#e58139"] ;
496 -> 500 ;
501 [label="gini = 0.0\nsamples = 2\nvalue = [0, 2]\nclass = h", fillcolor="#399de5"] ;
495 -> 501 ;
502 [label="x[8] <= 7.364\ngini = 0.111\nsamples = 17\nvalue = [1, 16]\nclass = h", fillcolor="#45a3e7"] ;
494 -> 502 ;
503 [label="gini = 0.0\nsamples = 15\nvalue = [0, 15]\nclass = h", fillcolor="#399de5"] ;
502 -> 503 ;
504 [label="x[0] <= 19.765\ngini = 0.5\nsamples = 2\nvalue = [1, 1]\nclass = g", fillcolor="#ffffff"] ;
502 -> 504 ;
505 [label="gini = 0.0\nsamples = 1\nvalue = [0, 1]\nclass = h", fillcolor="#399de5"] ;
504 -> 505 ;
506 [label="gini = 0.0\nsamples = 1\nvalue = [1, 0]\nclass = g", fillcolor="#e58139"] ;
504 -> 506 ;
507 [label="x[1] <= 11.323\ngini = 0.328\nsamples = 63\nvalue = [13, 50]\nclass = h", fillcolor="#6cb6ec"] ;
421 -> 507 ;
508 [label="x[3] <= 0.663\ngini = 0.069\nsamples = 28\nvalue = [1, 27]\nclass = h", fillcolor="#40a1e6"] ;
507 -> 508 ;
509 [label="gini = 0.0\nsamples = 24\nvalue = [0, 24]\nclass = h", fillcolor="#399de5"] ;
508 -> 509 ;
510 [label="x[3] <= 0.679\ngini = 0.375\nsamples = 4\nvalue = [1, 3]\nclass = h", fillcolor="#7bbeee"] ;
508 -> 510 ;
511 [label="gini = 0.0\nsamples = 1\nvalue = [1, 0]\nclass = g", fillcolor="#e58139"] ;
510 -> 511 ;
512 [label="gini = 0.0\nsamples = 3\nvalue = [0, 3]\nclass = h", fillcolor="#399de5"] ;
510 -> 512 ;
513 [label="x[3] <= 0.584\ngini = 0.451\nsamples = 35\nvalue = [12, 23]\nclass = h", fillcolor="#a0d0f3"] ;
507 -> 513 ;
514 [label="x[0] <= 31.686\ngini = 0.5\nsamples = 24\nvalue = [12, 12]\nclass = g", fillcolor="#ffffff"] ;
513 -> 514 ;
515 [label="x[9] <= 171.616\ngini = 0.391\nsamples = 15\nvalue = [11, 4]\nclass = g", fillcolor="#eeaf81"] ;
514 -> 515 ;
516 [label="gini = 0.0\nsamples = 7\nvalue = [7, 0]\nclass = g", fillcolor="#e58139"] ;
515 -> 516 ;
517 [label="x[8] <= 3.363\ngini = 0.5\nsamples = 8\nvalue = [4, 4]\nclass = g", fillcolor="#ffffff"] ;
515 -> 517 ;
518 [label="gini = 0.0\nsamples = 2\nvalue = [2, 0]\nclass = g", fillcolor="#e58139"] ;
517 -> 518 ;
519 [label="x[8] <= 7.874\ngini = 0.444\nsamples = 6\nvalue = [2, 4]\nclass = h", fillcolor="#9ccef2"] ;
517 -> 519 ;
520 [label="gini = 0.0\nsamples = 4\nvalue = [0, 4]\nclass = h", fillcolor="#399de5"] ;
519 -> 520 ;
521 [label="gini = 0.0\nsamples = 2\nvalue = [2, 0]\nclass = g", fillcolor="#e58139"] ;
519 -> 521 ;
522 [label="x[1] <= 12.797\ngini = 0.198\nsamples = 9\nvalue = [1, 8]\nclass = h", fillcolor="#52a9e8"] ;
514 -> 522 ;
523 [label="gini = 0.0\nsamples = 1\nvalue = [1, 0]\nclass = g", fillcolor="#e58139"] ;
522 -> 523 ;
524 [label="gini = 0.0\nsamples = 8\nvalue = [0, 8]\nclass = h", fillcolor="#399de5"] ;
522 -> 524 ;
525 [label="gini = 0.0\nsamples = 11\nvalue = [0, 11]\nclass = h", fillcolor="#399de5"] ;
513 -> 525 ;
526 [label="x[6] <= -33.37\ngini = 0.454\nsamples = 1310\nvalue = [854, 456]\nclass = g", fillcolor="#f3c4a3"] ;
2 -> 526 ;
527 [label="x[0] <= 63.653\ngini = 0.29\nsamples = 91\nvalue = [16, 75]\nclass = h", fillcolor="#63b2eb"] ;
526 -> 527 ;
528 [label="x[9] <= 138.596\ngini = 0.499\nsamples = 23\nvalue = [11, 12]\nclass = h", fillcolor="#eff7fd"] ;
527 -> 528 ;
529 [label="x[4] <= 0.233\ngini = 0.219\nsamples = 8\nvalue = [1, 7]\nclass = h", fillcolor="#55abe9"] ;
528 -> 529 ;
530 [label="gini = 0.0\nsamples = 7\nvalue = [0, 7]\nclass = h", fillcolor="#399de5"] ;
529 -> 530 ;
531 [label="gini = 0.0\nsamples = 1\nvalue = [1, 0]\nclass = g", fillcolor="#e58139"] ;
529 -> 531 ;
532 [label="x[9] <= 218.089\ngini = 0.444\nsamples = 15\nvalue = [10, 5]\nclass = g", fillcolor="#f2c09c"] ;
528 -> 532 ;
533 [label="x[6] <= -39.347\ngini = 0.278\nsamples = 12\nvalue = [10, 2]\nclass = g", fillcolor="#ea9a61"] ;
532 -> 533 ;
534 [label="gini = 0.0\nsamples = 9\nvalue = [9, 0]\nclass = g", fillcolor="#e58139"] ;
533 -> 534 ;
535 [label="x[2] <= 2.681\ngini = 0.444\nsamples = 3\nvalue = [1, 2]\nclass = h", fillcolor="#9ccef2"] ;
533 -> 535 ;
536 [label="gini = 0.0\nsamples = 2\nvalue = [0, 2]\nclass = h", fillcolor="#399de5"] ;
535 -> 536 ;
537 [label="gini = 0.0\nsamples = 1\nvalue = [1, 0]\nclass = g", fillcolor="#e58139"] ;
535 -> 537 ;
538 [label="gini = 0.0\nsamples = 3\nvalue = [0, 3]\nclass = h", fillcolor="#399de5"] ;
532 -> 538 ;
539 [label="x[5] <= -151.131\ngini = 0.136\nsamples = 68\nvalue = [5, 63]\nclass = h", fillcolor="#49a5e7"] ;
527 -> 539 ;
540 [label="gini = 0.0\nsamples = 1\nvalue = [1, 0]\nclass = g", fillcolor="#e58139"] ;
539 -> 540 ;
541 [label="x[3] <= 0.157\ngini = 0.112\nsamples = 67\nvalue = [4, 63]\nclass = h", fillcolor="#46a3e7"] ;
539 -> 541 ;
542 [label="x[2] <= 3.279\ngini = 0.408\nsamples = 7\nvalue = [2, 5]\nclass = h", fillcolor="#88c4ef"] ;
541 -> 542 ;
543 [label="gini = 0.0\nsamples = 2\nvalue = [2, 0]\nclass = g", fillcolor="#e58139"] ;
542 -> 543 ;
544 [label="gini = 0.0\nsamples = 5\nvalue = [0, 5]\nclass = h", fillcolor="#399de5"] ;
542 -> 544 ;
545 [label="x[1] <= 18.72\ngini = 0.064\nsamples = 60\nvalue = [2, 58]\nclass = h", fillcolor="#40a0e6"] ;
541 -> 545 ;
546 [label="x[7] <= -10.352\ngini = 0.278\nsamples = 12\nvalue = [2, 10]\nclass = h", fillcolor="#61b1ea"] ;
545 -> 546 ;
547 [label="gini = 0.0\nsamples = 2\nvalue = [2, 0]\nclass = g", fillcolor="#e58139"] ;
546 -> 547 ;
548 [label="gini = 0.0\nsamples = 10\nvalue = [0, 10]\nclass = h", fillcolor="#399de5"] ;
546 -> 548 ;
549 [label="gini = 0.0\nsamples = 48\nvalue = [0, 48]\nclass = h", fillcolor="#399de5"] ;
545 -> 549 ;
550 [label="x[1] <= 14.391\ngini = 0.43\nsamples = 1219\nvalue = [838.0, 381.0]\nclass = g", fillcolor="#f1ba93"] ;
526 -> 550 ;
551 [label="x[2] <= 2.627\ngini = 0.491\nsamples = 518\nvalue = [294, 224]\nclass = g", fillcolor="#f9e1d0"] ;
550 -> 551 ;
552 [label="x[3] <= 0.617\ngini = 0.441\nsamples = 411\nvalue = [276, 135]\nclass = g", fillcolor="#f2bf9a"] ;
551 -> 552 ;
553 [label="x[8] <= 17.018\ngini = 0.379\nsamples = 256\nvalue = [191, 65]\nclass = g", fillcolor="#eeac7c"] ;
552 -> 553 ;
554 [label="x[2] <= 2.556\ngini = 0.329\nsamples = 207\nvalue = [164, 43]\nclass = g", fillcolor="#eca26d"] ;
553 -> 554 ;
555 [label="x[0] <= 16.384\ngini = 0.268\nsamples = 169\nvalue = [142.0, 27.0]\nclass = g", fillcolor="#ea995f"] ;
554 -> 555 ;
556 [label="gini = 0.0\nsamples = 2\nvalue = [0, 2]\nclass = h", fillcolor="#399de5"] ;
555 -> 556 ;
557 [label="x[6] <= -2.638\ngini = 0.255\nsamples = 167\nvalue = [142.0, 25.0]\nclass = g", fillcolor="#ea975c"] ;
555 -> 557 ;
558 [label="x[6] <= -26.553\ngini = 0.086\nsamples = 67\nvalue = [64, 3]\nclass = g", fillcolor="#e68742"] ;
557 -> 558 ;
559 [label="x[5] <= 32.508\ngini = 0.5\nsamples = 4\nvalue = [2, 2]\nclass = g", fillcolor="#ffffff"] ;
558 -> 559 ;
560 [label="gini = 0.0\nsamples = 2\nvalue = [0, 2]\nclass = h", fillcolor="#399de5"] ;
559 -> 560 ;
561 [label="gini = 0.0\nsamples = 2\nvalue = [2, 0]\nclass = g", fillcolor="#e58139"] ;
559 -> 561 ;
562 [label="x[9] <= 69.624\ngini = 0.031\nsamples = 63\nvalue = [62, 1]\nclass = g", fillcolor="#e5833c"] ;
558 -> 562 ;
563 [label="x[9] <= 64.462\ngini = 0.444\nsamples = 3\nvalue = [2, 1]\nclass = g", fillcolor="#f2c09c"] ;
562 -> 563 ;
564 [label="gini = 0.0\nsamples = 2\nvalue = [2, 0]\nclass = g", fillcolor="#e58139"] ;
563 -> 564 ;
565 [label="gini = 0.0\nsamples = 1\nvalue = [0, 1]\nclass = h", fillcolor="#399de5"] ;
563 -> 565 ;
566 [label="gini = 0.0\nsamples = 60\nvalue = [60, 0]\nclass = g", fillcolor="#e58139"] ;
562 -> 566 ;
567 [label="x[6] <= 4.899\ngini = 0.343\nsamples = 100\nvalue = [78, 22]\nclass = g", fillcolor="#eca571"] ;
557 -> 567 ;
568 [label="gini = 0.0\nsamples = 3\nvalue = [0, 3]\nclass = h", fillcolor="#399de5"] ;
567 -> 568 ;
569 [label="x[7] <= -11.782\ngini = 0.315\nsamples = 97\nvalue = [78, 19]\nclass = g", fillcolor="#eba069"] ;
567 -> 569 ;
570 [label="gini = 0.0\nsamples = 2\nvalue = [0, 2]\nclass = h", fillcolor="#399de5"] ;
569 -> 570 ;
571 [label="x[1] <= 6.508\ngini = 0.294\nsamples = 95\nvalue = [78, 17]\nclass = g", fillcolor="#eb9c64"] ;
569 -> 571 ;
572 [label="gini = 0.0\nsamples = 1\nvalue = [0, 1]\nclass = h", fillcolor="#399de5"] ;
571 -> 572 ;
573 [label="x[6] <= 52.872\ngini = 0.282\nsamples = 94\nvalue = [78, 16]\nclass = g", fillcolor="#ea9b62"] ;
571 -> 573 ;
574 [label="x[0] <= 26.541\ngini = 0.271\nsamples = 93\nvalue = [78, 15]\nclass = g", fillcolor="#ea995f"] ;
573 -> 574 ;
575 [label="x[3] <= 0.472\ngini = 0.366\nsamples = 54\nvalue = [41, 13]\nclass = g", fillcolor="#eda978"] ;
574 -> 575 ;
576 [label="gini = 0.0\nsamples = 5\nvalue = [0, 5]\nclass = h", fillcolor="#399de5"] ;
575 -> 576 ;
577 [label="x[6] <= 19.682\ngini = 0.273\nsamples = 49\nvalue = [41.0, 8.0]\nclass = g", fillcolor="#ea9a60"] ;
575 -> 577 ;
578 [label="x[1] <= 9.067\ngini = 0.139\nsamples = 40\nvalue = [37, 3]\nclass = g", fillcolor="#e78b49"] ;
577 -> 578 ;
579 [label="gini = 0.0\nsamples = 1\nvalue = [0, 1]\nclass = h", fillcolor="#399de5"] ;
578 -> 579 ;
580 [label="x[6] <= 8.384\ngini = 0.097\nsamples = 39\nvalue = [37, 2]\nclass = g", fillcolor="#e68844"] ;
578 -> 580 ;
581 [label="x[5] <= 17.51\ngini = 0.375\nsamples = 8\nvalue = [6, 2]\nclass = g", fillcolor="#eeab7b"] ;
580 -> 581 ;
582 [label="gini = 0.0\nsamples = 6\nvalue = [6, 0]\nclass = g", fillcolor="#e58139"] ;
581 -> 582 ;
583 [label="gini = 0.0\nsamples = 2\nvalue = [0, 2]\nclass = h", fillcolor="#399de5"] ;
581 -> 583 ;
584 [label="gini = 0.0\nsamples = 31\nvalue = [31, 0]\nclass = g", fillcolor="#e58139"] ;
580 -> 584 ;
585 [label="x[3] <= 0.594\ngini = 0.494\nsamples = 9\nvalue = [4, 5]\nclass = h", fillcolor="#d7ebfa"] ;
577 -> 585 ;
586 [label="x[0] <= 24.304\ngini = 0.408\nsamples = 7\nvalue = [2, 5]\nclass = h", fillcolor="#88c4ef"] ;
585 -> 586 ;
587 [label="x[4] <= 0.344\ngini = 0.444\nsamples = 3\nvalue = [2, 1]\nclass = g", fillcolor="#f2c09c"] ;
586 -> 587 ;
588 [label="gini = 0.0\nsamples = 2\nvalue = [2, 0]\nclass = g", fillcolor="#e58139"] ;
587 -> 588 ;
589 [label="gini = 0.0\nsamples = 1\nvalue = [0, 1]\nclass = h", fillcolor="#399de5"] ;
587 -> 589 ;
590 [label="gini = 0.0\nsamples = 4\nvalue = [0, 4]\nclass = h", fillcolor="#399de5"] ;
586 -> 590 ;
591 [label="gini = 0.0\nsamples = 2\nvalue = [2, 0]\nclass = g", fillcolor="#e58139"] ;
585 -> 591 ;
592 [label="x[5] <= -37.462\ngini = 0.097\nsamples = 39\nvalue = [37, 2]\nclass = g", fillcolor="#e68844"] ;
574 -> 592 ;
593 [label="x[3] <= 0.489\ngini = 0.5\nsamples = 2\nvalue = [1, 1]\nclass = g", fillcolor="#ffffff"] ;
592 -> 593 ;
594 [label="gini = 0.0\nsamples = 1\nvalue = [1, 0]\nclass = g", fillcolor="#e58139"] ;
593 -> 594 ;
595 [label="gini = 0.0\nsamples = 1\nvalue = [0, 1]\nclass = h", fillcolor="#399de5"] ;
593 -> 595 ;
596 [label="x[3] <= 0.398\ngini = 0.053\nsamples = 37\nvalue = [36, 1]\nclass = g", fillcolor="#e6843e"] ;
592 -> 596 ;
597 [label="x[3] <= 0.388\ngini = 0.278\nsamples = 6\nvalue = [5, 1]\nclass = g", fillcolor="#ea9a61"] ;
596 -> 597 ;
598 [label="gini = 0.0\nsamples = 5\nvalue = [5, 0]\nclass = g", fillcolor="#e58139"] ;
597 -> 598 ;
599 [label="gini = 0.0\nsamples = 1\nvalue = [0, 1]\nclass = h", fillcolor="#399de5"] ;
597 -> 599 ;
600 [label="gini = 0.0\nsamples = 31\nvalue = [31, 0]\nclass = g", fillcolor="#e58139"] ;
596 -> 600 ;
601 [label="gini = 0.0\nsamples = 1\nvalue = [0, 1]\nclass = h", fillcolor="#399de5"] ;
573 -> 601 ;
602 [label="x[8] <= 12.291\ngini = 0.488\nsamples = 38\nvalue = [22, 16]\nclass = g", fillcolor="#f8ddc9"] ;
554 -> 602 ;
603 [label="x[9] <= 187.335\ngini = 0.469\nsamples = 16\nvalue = [6, 10]\nclass = h", fillcolor="#b0d8f5"] ;
602 -> 603 ;
604 [label="x[8] <= 10.698\ngini = 0.469\nsamples = 8\nvalue = [5, 3]\nclass = g", fillcolor="#f5cdb0"] ;
603 -> 604 ;
605 [label="gini = 0.0\nsamples = 3\nvalue = [0, 3]\nclass = h", fillcolor="#399de5"] ;
604 -> 605 ;
606 [label="gini = 0.0\nsamples = 5\nvalue = [5, 0]\nclass = g", fillcolor="#e58139"] ;
604 -> 606 ;
607 [label="x[7] <= -11.106\ngini = 0.219\nsamples = 8\nvalue = [1, 7]\nclass = h", fillcolor="#55abe9"] ;
603 -> 607 ;
608 [label="gini = 0.0\nsamples = 1\nvalue = [1, 0]\nclass = g", fillcolor="#e58139"] ;
607 -> 608 ;
609 [label="gini = 0.0\nsamples = 7\nvalue = [0, 7]\nclass = h", fillcolor="#399de5"] ;
607 -> 609 ;
610 [label="x[1] <= 10.659\ngini = 0.397\nsamples = 22\nvalue = [16, 6]\nclass = g", fillcolor="#efb083"] ;
602 -> 610 ;
611 [label="x[8] <= 14.441\ngini = 0.444\nsamples = 6\nvalue = [2, 4]\nclass = h", fillcolor="#9ccef2"] ;
610 -> 611 ;
612 [label="x[9] <= 171.085\ngini = 0.444\nsamples = 3\nvalue = [2, 1]\nclass = g", fillcolor="#f2c09c"] ;
611 -> 612 ;
613 [label="gini = 0.0\nsamples = 1\nvalue = [0, 1]\nclass = h", fillcolor="#399de5"] ;
612 -> 613 ;
614 [label="gini = 0.0\nsamples = 2\nvalue = [2, 0]\nclass = g", fillcolor="#e58139"] ;
612 -> 614 ;
615 [label="gini = 0.0\nsamples = 3\nvalue = [0, 3]\nclass = h", fillcolor="#399de5"] ;
611 -> 615 ;
616 [label="x[4] <= 0.198\ngini = 0.219\nsamples = 16\nvalue = [14, 2]\nclass = g", fillcolor="#e99355"] ;
610 -> 616 ;
617 [label="x[5] <= -5.239\ngini = 0.444\nsamples = 3\nvalue = [1, 2]\nclass = h", fillcolor="#9ccef2"] ;
616 -> 617 ;
618 [label="gini = 0.0\nsamples = 1\nvalue = [1, 0]\nclass = g", fillcolor="#e58139"] ;
617 -> 618 ;
619 [label="gini = 0.0\nsamples = 2\nvalue = [0, 2]\nclass = h", fillcolor="#399de5"] ;
617 -> 619 ;
620 [label="gini = 0.0\nsamples = 13\nvalue = [13, 0]\nclass = g", fillcolor="#e58139"] ;
616 -> 620 ;
621 [label="x[1] <= 10.074\ngini = 0.495\nsamples = 49\nvalue = [27.0, 22.0]\nclass = g", fillcolor="#fae8da"] ;
553 -> 621 ;
622 [label="x[5] <= 39.452\ngini = 0.408\nsamples = 14\nvalue = [4, 10]\nclass = h", fillcolor="#88c4ef"] ;
621 -> 622 ;
623 [label="x[4] <= 0.409\ngini = 0.278\nsamples = 12\nvalue = [2, 10]\nclass = h", fillcolor="#61b1ea"] ;
622 -> 623 ;
624 [label="x[1] <= 7.348\ngini = 0.165\nsamples = 11\nvalue = [1, 10]\nclass = h", fillcolor="#4da7e8"] ;
623 -> 624 ;
625 [label="gini = 0.0\nsamples = 1\nvalue = [1, 0]\nclass = g", fillcolor="#e58139"] ;
624 -> 625 ;
626 [label="gini = 0.0\nsamples = 10\nvalue = [0, 10]\nclass = h", fillcolor="#399de5"] ;
624 -> 626 ;
627 [label="gini = 0.0\nsamples = 1\nvalue = [1, 0]\nclass = g", fillcolor="#e58139"] ;
623 -> 627 ;
628 [label="gini = 0.0\nsamples = 2\nvalue = [2, 0]\nclass = g", fillcolor="#e58139"] ;
622 -> 628 ;
629 [label="x[0] <= 18.974\ngini = 0.451\nsamples = 35\nvalue = [23, 12]\nclass = g", fillcolor="#f3c3a0"] ;
621 -> 629 ;
630 [label="x[7] <= -6.187\ngini = 0.463\nsamples = 11\nvalue = [4, 7]\nclass = h", fillcolor="#aad5f4"] ;
629 -> 630 ;
631 [label="gini = 0.0\nsamples = 3\nvalue = [3, 0]\nclass = g", fillcolor="#e58139"] ;
630 -> 631 ;
632 [label="x[2] <= 2.336\ngini = 0.219\nsamples = 8\nvalue = [1, 7]\nclass = h", fillcolor="#55abe9"] ;
630 -> 632 ;
633 [label="gini = 0.0\nsamples = 1\nvalue = [1, 0]\nclass = g", fillcolor="#e58139"] ;
632 -> 633 ;
634 [label="gini = 0.0\nsamples = 7\nvalue = [0, 7]\nclass = h", fillcolor="#399de5"] ;
632 -> 634 ;
635 [label="x[5] <= 6.952\ngini = 0.33\nsamples = 24\nvalue = [19, 5]\nclass = g", fillcolor="#eca26d"] ;
629 -> 635 ;
636 [label="gini = 0.0\nsamples = 10\nvalue = [10, 0]\nclass = g", fillcolor="#e58139"] ;
635 -> 636 ;
637 [label="x[3] <= 0.537\ngini = 0.459\nsamples = 14\nvalue = [9, 5]\nclass = g", fillcolor="#f3c7a7"] ;
635 -> 637 ;
638 [label="x[0] <= 32.992\ngini = 0.494\nsamples = 9\nvalue = [4, 5]\nclass = h", fillcolor="#d7ebfa"] ;
637 -> 638 ;
639 [label="gini = 0.0\nsamples = 4\nvalue = [0, 4]\nclass = h", fillcolor="#399de5"] ;
638 -> 639 ;
640 [label="x[2] <= 2.39\ngini = 0.32\nsamples = 5\nvalue = [4, 1]\nclass = g", fillcolor="#eca06a"] ;
638 -> 640 ;
641 [label="gini = 0.0\nsamples = 1\nvalue = [0, 1]\nclass = h", fillcolor="#399de5"] ;
640 -> 641 ;
642 [label="gini = 0.0\nsamples = 4\nvalue = [4, 0]\nclass = g", fillcolor="#e58139"] ;
640 -> 642 ;
643 [label="gini = 0.0\nsamples = 5\nvalue = [5, 0]\nclass = g", fillcolor="#e58139"] ;
637 -> 643 ;
644 [label="x[2] <= 2.355\ngini = 0.495\nsamples = 155\nvalue = [85, 70]\nclass = g", fillcolor="#fae9dc"] ;
552 -> 644 ;
645 [label="x[0] <= 12.432\ngini = 0.401\nsamples = 108\nvalue = [78, 30]\nclass = g", fillcolor="#efb185"] ;
644 -> 645 ;
646 [label="gini = 0.0\nsamples = 3\nvalue = [0, 3]\nclass = h", fillcolor="#399de5"] ;
645 -> 646 ;
647 [label="x[7] <= -11.777\ngini = 0.382\nsamples = 105\nvalue = [78.0, 27.0]\nclass = g", fillcolor="#eead7e"] ;
645 -> 647 ;
648 [label="gini = 0.0\nsamples = 3\nvalue = [0, 3]\nclass = h", fillcolor="#399de5"] ;
647 -> 648 ;
649 [label="x[7] <= 12.596\ngini = 0.36\nsamples = 102\nvalue = [78, 24]\nclass = g", fillcolor="#eda876"] ;
647 -> 649 ;
650 [label="x[5] <= -28.912\ngini = 0.334\nsamples = 99\nvalue = [78, 21]\nclass = g", fillcolor="#eca36e"] ;
649 -> 650 ;
651 [label="gini = 0.0\nsamples = 3\nvalue = [0, 3]\nclass = h", fillcolor="#399de5"] ;
650 -> 651 ;
652 [label="x[1] <= 13.463\ngini = 0.305\nsamples = 96\nvalue = [78, 18]\nclass = g", fillcolor="#eb9e67"] ;
650 -> 652 ;
653 [label="x[8] <= 12.704\ngini = 0.282\nsamples = 94\nvalue = [78, 16]\nclass = g", fillcolor="#ea9b62"] ;
652 -> 653 ;
654 [label="x[1] <= 11.647\ngini = 0.064\nsamples = 30\nvalue = [29, 1]\nclass = g", fillcolor="#e68540"] ;
653 -> 654 ;
655 [label="gini = 0.0\nsamples = 29\nvalue = [29, 0]\nclass = g", fillcolor="#e58139"] ;
654 -> 655 ;
656 [label="gini = 0.0\nsamples = 1\nvalue = [0, 1]\nclass = h", fillcolor="#399de5"] ;
654 -> 656 ;
657 [label="x[4] <= 0.447\ngini = 0.359\nsamples = 64\nvalue = [49, 15]\nclass = g", fillcolor="#eda876"] ;
653 -> 657 ;
658 [label="x[6] <= -14.86\ngini = 0.227\nsamples = 46\nvalue = [40, 6]\nclass = g", fillcolor="#e99457"] ;
657 -> 658 ;
659 [label="gini = 0.0\nsamples = 2\nvalue = [0, 2]\nclass = h", fillcolor="#399de5"] ;
658 -> 659 ;
660 [label="x[1] <= 7.422\ngini = 0.165\nsamples = 44\nvalue = [40, 4]\nclass = g", fillcolor="#e88e4d"] ;
658 -> 660 ;
661 [label="x[0] <= 18.257\ngini = 0.32\nsamples = 20\nvalue = [16, 4]\nclass = g", fillcolor="#eca06a"] ;
660 -> 661 ;
662 [label="gini = 0.0\nsamples = 2\nvalue = [0, 2]\nclass = h", fillcolor="#399de5"] ;
661 -> 662 ;
663 [label="x[7] <= 8.669\ngini = 0.198\nsamples = 18\nvalue = [16, 2]\nclass = g", fillcolor="#e89152"] ;
661 -> 663 ;
664 [label="x[7] <= -6.258\ngini = 0.111\nsamples = 17\nvalue = [16, 1]\nclass = g", fillcolor="#e78945"] ;
663 -> 664 ;
665 [label="x[9] <= 131.979\ngini = 0.5\nsamples = 2\nvalue = [1, 1]\nclass = g", fillcolor="#ffffff"] ;
664 -> 665 ;
666 [label="gini = 0.0\nsamples = 1\nvalue = [1, 0]\nclass = g", fillcolor="#e58139"] ;
665 -> 666 ;
667 [label="gini = 0.0\nsamples = 1\nvalue = [0, 1]\nclass = h", fillcolor="#399de5"] ;
665 -> 667 ;
668 [label="gini = 0.0\nsamples = 15\nvalue = [15, 0]\nclass = g", fillcolor="#e58139"] ;
664 -> 668 ;
669 [label="gini = 0.0\nsamples = 1\nvalue = [0, 1]\nclass = h", fillcolor="#399de5"] ;
663 -> 669 ;
670 [label="gini = 0.0\nsamples = 24\nvalue = [24, 0]\nclass = g", fillcolor="#e58139"] ;
660 -> 670 ;
671 [label="x[7] <= 1.938\ngini = 0.5\nsamples = 18\nvalue = [9, 9]\nclass = g", fillcolor="#ffffff"] ;
657 -> 671 ;
672 [label="x[0] <= 29.303\ngini = 0.219\nsamples = 8\nvalue = [7, 1]\nclass = g", fillcolor="#e99355"] ;
671 -> 672 ;
673 [label="gini = 0.0\nsamples = 7\nvalue = [7, 0]\nclass = g", fillcolor="#e58139"] ;
672 -> 673 ;
674 [label="gini = 0.0\nsamples = 1\nvalue = [0, 1]\nclass = h", fillcolor="#399de5"] ;
672 -> 674 ;
675 [label="x[0] <= 22.265\ngini = 0.32\nsamples = 10\nvalue = [2, 8]\nclass = h", fillcolor="#6ab6ec"] ;
671 -> 675 ;
676 [label="x[7] <= 10.906\ngini = 0.198\nsamples = 9\nvalue = [1, 8]\nclass = h", fillcolor="#52a9e8"] ;
675 -> 676 ;
677 [label="gini = 0.0\nsamples = 8\nvalue = [0, 8]\nclass = h", fillcolor="#399de5"] ;
676 -> 677 ;
678 [label="gini = 0.0\nsamples = 1\nvalue = [1, 0]\nclass = g", fillcolor="#e58139"] ;
676 -> 678 ;
679 [label="gini = 0.0\nsamples = 1\nvalue = [1, 0]\nclass = g", fillcolor="#e58139"] ;
675 -> 679 ;
680 [label="gini = 0.0\nsamples = 2\nvalue = [0, 2]\nclass = h", fillcolor="#399de5"] ;
652 -> 680 ;
681 [label="gini = 0.0\nsamples = 3\nvalue = [0, 3]\nclass = h", fillcolor="#399de5"] ;
649 -> 681 ;
682 [label="x[2] <= 2.406\ngini = 0.254\nsamples = 47\nvalue = [7, 40]\nclass = h", fillcolor="#5caeea"] ;
644 -> 682 ;
683 [label="x[2] <= 2.367\ngini = 0.469\nsamples = 16\nvalue = [6, 10]\nclass = h", fillcolor="#b0d8f5"] ;
682 -> 683 ;
684 [label="gini = 0.0\nsamples = 5\nvalue = [0, 5]\nclass = h", fillcolor="#399de5"] ;
683 -> 684 ;
685 [label="x[3] <= 0.637\ngini = 0.496\nsamples = 11\nvalue = [6, 5]\nclass = g", fillcolor="#fbeade"] ;
683 -> 685 ;
686 [label="gini = 0.0\nsamples = 4\nvalue = [0, 4]\nclass = h", fillcolor="#399de5"] ;
685 -> 686 ;
687 [label="x[1] <= 11.78\ngini = 0.245\nsamples = 7\nvalue = [6, 1]\nclass = g", fillcolor="#e9965a"] ;
685 -> 687 ;
688 [label="gini = 0.0\nsamples = 6\nvalue = [6, 0]\nclass = g", fillcolor="#e58139"] ;
687 -> 688 ;
689 [label="gini = 0.0\nsamples = 1\nvalue = [0, 1]\nclass = h", fillcolor="#399de5"] ;
687 -> 689 ;
690 [label="x[6] <= -13.718\ngini = 0.062\nsamples = 31\nvalue = [1, 30]\nclass = h", fillcolor="#40a0e6"] ;
682 -> 690 ;
691 [label="x[0] <= 24.175\ngini = 0.5\nsamples = 2\nvalue = [1, 1]\nclass = g", fillcolor="#ffffff"] ;
690 -> 691 ;
692 [label="gini = 0.0\nsamples = 1\nvalue = [1, 0]\nclass = g", fillcolor="#e58139"] ;
691 -> 692 ;
693 [label="gini = 0.0\nsamples = 1\nvalue = [0, 1]\nclass = h", fillcolor="#399de5"] ;
691 -> 693 ;
694 [label="gini = 0.0\nsamples = 29\nvalue = [0, 29]\nclass = h", fillcolor="#399de5"] ;
690 -> 694 ;
695 [label="x[1] <= 12.5\ngini = 0.28\nsamples = 107\nvalue = [18, 89]\nclass = h", fillcolor="#61b1ea"] ;
551 -> 695 ;
696 [label="x[9] <= 166.078\ngini = 0.112\nsamples = 67\nvalue = [4, 63]\nclass = h", fillcolor="#46a3e7"] ;
695 -> 696 ;
697 [label="x[9] <= 142.125\ngini = 0.278\nsamples = 24\nvalue = [4, 20]\nclass = h", fillcolor="#61b1ea"] ;
696 -> 697 ;
698 [label="gini = 0.0\nsamples = 17\nvalue = [0, 17]\nclass = h", fillcolor="#399de5"] ;
697 -> 698 ;
699 [label="x[5] <= -3.493\ngini = 0.49\nsamples = 7\nvalue = [4, 3]\nclass = g", fillcolor="#f8e0ce"] ;
697 -> 699 ;
700 [label="gini = 0.0\nsamples = 3\nvalue = [3, 0]\nclass = g", fillcolor="#e58139"] ;
699 -> 700 ;
701 [label="x[5] <= 41.184\ngini = 0.375\nsamples = 4\nvalue = [1, 3]\nclass = h", fillcolor="#7bbeee"] ;
699 -> 701 ;
702 [label="gini = 0.0\nsamples = 3\nvalue = [0, 3]\nclass = h", fillcolor="#399de5"] ;
701 -> 702 ;
703 [label="gini = 0.0\nsamples = 1\nvalue = [1, 0]\nclass = g", fillcolor="#e58139"] ;
701 -> 703 ;
704 [label="gini = 0.0\nsamples = 43\nvalue = [0, 43]\nclass = h", fillcolor="#399de5"] ;
696 -> 704 ;
705 [label="x[9] <= 237.109\ngini = 0.455\nsamples = 40\nvalue = [14, 26]\nclass = h", fillcolor="#a4d2f3"] ;
695 -> 705 ;
706 [label="x[3] <= 0.455\ngini = 0.495\nsamples = 31\nvalue = [14, 17]\nclass = h", fillcolor="#dceefa"] ;
705 -> 706 ;
707 [label="x[2] <= 2.889\ngini = 0.483\nsamples = 22\nvalue = [13, 9]\nclass = g", fillcolor="#f7d8c2"] ;
706 -> 707 ;
708 [label="x[9] <= 116.518\ngini = 0.36\nsamples = 17\nvalue = [13, 4]\nclass = g", fillcolor="#eda876"] ;
707 -> 708 ;
709 [label="x[4] <= 0.174\ngini = 0.444\nsamples = 3\nvalue = [1, 2]\nclass = h", fillcolor="#9ccef2"] ;
708 -> 709 ;
710 [label="gini = 0.0\nsamples = 1\nvalue = [1, 0]\nclass = g", fillcolor="#e58139"] ;
709 -> 710 ;
711 [label="gini = 0.0\nsamples = 2\nvalue = [0, 2]\nclass = h", fillcolor="#399de5"] ;
709 -> 711 ;
712 [label="x[4] <= 0.179\ngini = 0.245\nsamples = 14\nvalue = [12, 2]\nclass = g", fillcolor="#e9965a"] ;
708 -> 712 ;
713 [label="gini = 0.0\nsamples = 1\nvalue = [0, 1]\nclass = h", fillcolor="#399de5"] ;
712 -> 713 ;
714 [label="x[9] <= 214.987\ngini = 0.142\nsamples = 13\nvalue = [12, 1]\nclass = g", fillcolor="#e78c49"] ;
712 -> 714 ;
715 [label="gini = 0.0\nsamples = 10\nvalue = [10, 0]\nclass = g", fillcolor="#e58139"] ;
714 -> 715 ;
716 [label="x[9] <= 228.752\ngini = 0.444\nsamples = 3\nvalue = [2, 1]\nclass = g", fillcolor="#f2c09c"] ;
714 -> 716 ;
717 [label="gini = 0.0\nsamples = 1\nvalue = [0, 1]\nclass = h", fillcolor="#399de5"] ;
716 -> 717 ;
718 [label="gini = 0.0\nsamples = 2\nvalue = [2, 0]\nclass = g", fillcolor="#e58139"] ;
716 -> 718 ;
719 [label="gini = 0.0\nsamples = 5\nvalue = [0, 5]\nclass = h", fillcolor="#399de5"] ;
707 -> 719 ;
720 [label="x[4] <= 0.307\ngini = 0.198\nsamples = 9\nvalue = [1, 8]\nclass = h", fillcolor="#52a9e8"] ;
706 -> 720 ;
721 [label="gini = 0.0\nsamples = 8\nvalue = [0, 8]\nclass = h", fillcolor="#399de5"] ;
720 -> 721 ;
722 [label="gini = 0.0\nsamples = 1\nvalue = [1, 0]\nclass = g", fillcolor="#e58139"] ;
720 -> 722 ;
723 [label="gini = 0.0\nsamples = 9\nvalue = [0, 9]\nclass = h", fillcolor="#399de5"] ;
705 -> 723 ;
724 [label="x[9] <= 267.634\ngini = 0.348\nsamples = 701\nvalue = [544, 157]\nclass = g", fillcolor="#eda572"] ;
550 -> 724 ;
725 [label="x[0] <= 93.076\ngini = 0.292\nsamples = 625\nvalue = [514, 111]\nclass = g", fillcolor="#eb9c64"] ;
724 -> 725 ;
726 [label="x[3] <= 0.524\ngini = 0.276\nsamples = 612\nvalue = [511, 101]\nclass = g", fillcolor="#ea9a60"] ;
725 -> 726 ;
727 [label="x[7] <= -19.978\ngini = 0.254\nsamples = 589\nvalue = [501, 88]\nclass = g", fillcolor="#ea975c"] ;
726 -> 727 ;
728 [label="x[9] <= 146.164\ngini = 0.499\nsamples = 21\nvalue = [11, 10]\nclass = g", fillcolor="#fdf4ed"] ;
727 -> 728 ;
729 [label="gini = 0.0\nsamples = 5\nvalue = [0, 5]\nclass = h", fillcolor="#399de5"] ;
728 -> 729 ;
730 [label="x[5] <= 54.707\ngini = 0.43\nsamples = 16\nvalue = [11, 5]\nclass = g", fillcolor="#f1ba93"] ;
728 -> 730 ;
731 [label="x[8] <= 11.804\ngini = 0.337\nsamples = 14\nvalue = [11, 3]\nclass = g", fillcolor="#eca36f"] ;
730 -> 731 ;
732 [label="x[6] <= 54.08\ngini = 0.444\nsamples = 3\nvalue = [1, 2]\nclass = h", fillcolor="#9ccef2"] ;
731 -> 732 ;
733 [label="gini = 0.0\nsamples = 2\nvalue = [0, 2]\nclass = h", fillcolor="#399de5"] ;
732 -> 733 ;
734 [label="gini = 0.0\nsamples = 1\nvalue = [1, 0]\nclass = g", fillcolor="#e58139"] ;
732 -> 734 ;
735 [label="x[4] <= 0.176\ngini = 0.165\nsamples = 11\nvalue = [10, 1]\nclass = g", fillcolor="#e88e4d"] ;
731 -> 735 ;
736 [label="gini = 0.0\nsamples = 10\nvalue = [10, 0]\nclass = g", fillcolor="#e58139"] ;
735 -> 736 ;
737 [label="gini = 0.0\nsamples = 1\nvalue = [0, 1]\nclass = h", fillcolor="#399de5"] ;
735 -> 737 ;
738 [label="gini = 0.0\nsamples = 2\nvalue = [0, 2]\nclass = h", fillcolor="#399de5"] ;
730 -> 738 ;
739 [label="x[2] <= 2.285\ngini = 0.237\nsamples = 568\nvalue = [490, 78]\nclass = g", fillcolor="#e99559"] ;
727 -> 739 ;
740 [label="gini = 0.0\nsamples = 3\nvalue = [0, 3]\nclass = h", fillcolor="#399de5"] ;
739 -> 740 ;
741 [label="x[4] <= 0.05\ngini = 0.23\nsamples = 565\nvalue = [490, 75]\nclass = g", fillcolor="#e99457"] ;
739 -> 741 ;
742 [label="gini = 0.0\nsamples = 2\nvalue = [0, 2]\nclass = h", fillcolor="#399de5"] ;
741 -> 742 ;
743 [label="x[9] <= 238.872\ngini = 0.226\nsamples = 563\nvalue = [490, 73]\nclass = g", fillcolor="#e99456"] ;
741 -> 743 ;
744 [label="x[5] <= 59.543\ngini = 0.197\nsamples = 497\nvalue = [442, 55]\nclass = g", fillcolor="#e89152"] ;
743 -> 744 ;
745 [label="x[3] <= 0.413\ngini = 0.173\nsamples = 471\nvalue = [426, 45]\nclass = g", fillcolor="#e88e4e"] ;
744 -> 745 ;
746 [label="x[5] <= -26.661\ngini = 0.135\nsamples = 384\nvalue = [356, 28]\nclass = g", fillcolor="#e78b49"] ;
745 -> 746 ;
747 [label="x[1] <= 23.929\ngini = 0.375\nsamples = 28\nvalue = [21, 7]\nclass = g", fillcolor="#eeab7b"] ;
746 -> 747 ;
748 [label="x[1] <= 15.738\ngini = 0.236\nsamples = 22\nvalue = [19, 3]\nclass = g", fillcolor="#e99558"] ;
747 -> 748 ;
749 [label="x[3] <= 0.337\ngini = 0.49\nsamples = 7\nvalue = [4, 3]\nclass = g", fillcolor="#f8e0ce"] ;
748 -> 749 ;
750 [label="gini = 0.0\nsamples = 3\nvalue = [0, 3]\nclass = h", fillcolor="#399de5"] ;
749 -> 750 ;
751 [label="gini = 0.0\nsamples = 4\nvalue = [4, 0]\nclass = g", fillcolor="#e58139"] ;
749 -> 751 ;
752 [label="gini = 0.0\nsamples = 15\nvalue = [15, 0]\nclass = g", fillcolor="#e58139"] ;
748 -> 752 ;
753 [label="x[0] <= 76.715\ngini = 0.444\nsamples = 6\nvalue = [2, 4]\nclass = h", fillcolor="#9ccef2"] ;
747 -> 753 ;
754 [label="gini = 0.0\nsamples = 4\nvalue = [0, 4]\nclass = h", fillcolor="#399de5"] ;
753 -> 754 ;
755 [label="gini = 0.0\nsamples = 2\nvalue = [2, 0]\nclass = g", fillcolor="#e58139"] ;
753 -> 755 ;
756 [label="x[9] <= 108.19\ngini = 0.111\nsamples = 356\nvalue = [335, 21]\nclass = g", fillcolor="#e78945"] ;
746 -> 756 ;
757 [label="x[8] <= 9.985\ngini = 0.282\nsamples = 47\nvalue = [39, 8]\nclass = g", fillcolor="#ea9b62"] ;
756 -> 757 ;
758 [label="gini = 0.0\nsamples = 2\nvalue = [0, 2]\nclass = h", fillcolor="#399de5"] ;
757 -> 758 ;
759 [label="x[0] <= 44.04\ngini = 0.231\nsamples = 45\nvalue = [39, 6]\nclass = g", fillcolor="#e99457"] ;
757 -> 759 ;
760 [label="x[7] <= 17.481\ngini = 0.105\nsamples = 36\nvalue = [34, 2]\nclass = g", fillcolor="#e78845"] ;
759 -> 760 ;
761 [label="x[8] <= 12.058\ngini = 0.061\nsamples = 32\nvalue = [31, 1]\nclass = g", fillcolor="#e6853f"] ;
760 -> 761 ;
762 [label="x[8] <= 11.885\ngini = 0.278\nsamples = 6\nvalue = [5, 1]\nclass = g", fillcolor="#ea9a61"] ;
761 -> 762 ;
763 [label="gini = 0.0\nsamples = 5\nvalue = [5, 0]\nclass = g", fillcolor="#e58139"] ;
762 -> 763 ;
764 [label="gini = 0.0\nsamples = 1\nvalue = [0, 1]\nclass = h", fillcolor="#399de5"] ;
762 -> 764 ;
765 [label="gini = 0.0\nsamples = 26\nvalue = [26, 0]\nclass = g", fillcolor="#e58139"] ;
761 -> 765 ;
766 [label="x[4] <= 0.168\ngini = 0.375\nsamples = 4\nvalue = [3, 1]\nclass = g", fillcolor="#eeab7b"] ;
760 -> 766 ;
767 [label="gini = 0.0\nsamples = 3\nvalue = [3, 0]\nclass = g", fillcolor="#e58139"] ;
766 -> 767 ;
768 [label="gini = 0.0\nsamples = 1\nvalue = [0, 1]\nclass = h", fillcolor="#399de5"] ;
766 -> 768 ;
769 [label="x[2] <= 3.137\ngini = 0.494\nsamples = 9\nvalue = [5, 4]\nclass = g", fillcolor="#fae6d7"] ;
759 -> 769 ;
770 [label="gini = 0.0\nsamples = 4\nvalue = [0, 4]\nclass = h", fillcolor="#399de5"] ;
769 -> 770 ;
771 [label="gini = 0.0\nsamples = 5\nvalue = [5, 0]\nclass = g", fillcolor="#e58139"] ;
769 -> 771 ;
772 [label="x[0] <= 22.09\ngini = 0.081\nsamples = 309\nvalue = [296, 13]\nclass = g", fillcolor="#e68742"] ;
756 -> 772 ;
773 [label="x[2] <= 2.562\ngini = 0.5\nsamples = 4\nvalue = [2, 2]\nclass = g", fillcolor="#ffffff"] ;
772 -> 773 ;
774 [label="gini = 0.0\nsamples = 2\nvalue = [2, 0]\nclass = g", fillcolor="#e58139"] ;
773 -> 774 ;
775 [label="gini = 0.0\nsamples = 2\nvalue = [0, 2]\nclass = h", fillcolor="#399de5"] ;
773 -> 775 ;
776 [label="x[2] <= 2.871\ngini = 0.07\nsamples = 305\nvalue = [294, 11]\nclass = g", fillcolor="#e68640"] ;
772 -> 776 ;
777 [label="x[2] <= 2.867\ngini = 0.117\nsamples = 160\nvalue = [150, 10]\nclass = g", fillcolor="#e78946"] ;
776 -> 777 ;
778 [label="x[0] <= 65.518\ngini = 0.107\nsamples = 159\nvalue = [150, 9]\nclass = g", fillcolor="#e78945"] ;
777 -> 778 ;
779 [label="x[4] <= 0.223\ngini = 0.086\nsamples = 155\nvalue = [148, 7]\nclass = g", fillcolor="#e68742"] ;
778 -> 779 ;
780 [label="x[8] <= 19.377\ngini = 0.058\nsamples = 133\nvalue = [129, 4]\nclass = g", fillcolor="#e6853f"] ;
779 -> 780 ;
781 [label="x[2] <= 2.551\ngini = 0.045\nsamples = 129\nvalue = [126, 3]\nclass = g", fillcolor="#e6843e"] ;
780 -> 781 ;
782 [label="x[3] <= 0.311\ngini = 0.198\nsamples = 18\nvalue = [16, 2]\nclass = g", fillcolor="#e89152"] ;
781 -> 782 ;
783 [label="gini = 0.0\nsamples = 1\nvalue = [0, 1]\nclass = h", fillcolor="#399de5"] ;
782 -> 783 ;
784 [label="x[9] <= 134.163\ngini = 0.111\nsamples = 17\nvalue = [16, 1]\nclass = g", fillcolor="#e78945"] ;
782 -> 784 ;
785 [label="x[9] <= 120.75\ngini = 0.5\nsamples = 2\nvalue = [1, 1]\nclass = g", fillcolor="#ffffff"] ;
784 -> 785 ;
786 [label="gini = 0.0\nsamples = 1\nvalue = [1, 0]\nclass = g", fillcolor="#e58139"] ;
785 -> 786 ;
787 [label="gini = 0.0\nsamples = 1\nvalue = [0, 1]\nclass = h", fillcolor="#399de5"] ;
785 -> 787 ;
788 [label="gini = 0.0\nsamples = 15\nvalue = [15, 0]\nclass = g", fillcolor="#e58139"] ;
784 -> 788 ;
789 [label="x[0] <= 40.766\ngini = 0.018\nsamples = 111\nvalue = [110, 1]\nclass = g", fillcolor="#e5823b"] ;
781 -> 789 ;
790 [label="gini = 0.0\nsamples = 94\nvalue = [94, 0]\nclass = g", fillcolor="#e58139"] ;
789 -> 790 ;
791 [label="x[0] <= 40.958\ngini = 0.111\nsamples = 17\nvalue = [16, 1]\nclass = g", fillcolor="#e78945"] ;
789 -> 791 ;
792 [label="gini = 0.0\nsamples = 1\nvalue = [0, 1]\nclass = h", fillcolor="#399de5"] ;
791 -> 792 ;
793 [label="gini = 0.0\nsamples = 16\nvalue = [16, 0]\nclass = g", fillcolor="#e58139"] ;
791 -> 793 ;
794 [label="x[0] <= 35.563\ngini = 0.375\nsamples = 4\nvalue = [3, 1]\nclass = g", fillcolor="#eeab7b"] ;
780 -> 794 ;
795 [label="gini = 0.0\nsamples = 3\nvalue = [3, 0]\nclass = g", fillcolor="#e58139"] ;
794 -> 795 ;
796 [label="gini = 0.0\nsamples = 1\nvalue = [0, 1]\nclass = h", fillcolor="#399de5"] ;
794 -> 796 ;
797 [label="x[2] <= 2.818\ngini = 0.236\nsamples = 22\nvalue = [19, 3]\nclass = g", fillcolor="#e99558"] ;
779 -> 797 ;
798 [label="x[4] <= 0.223\ngini = 0.172\nsamples = 21\nvalue = [19, 2]\nclass = g", fillcolor="#e88e4e"] ;
797 -> 798 ;
799 [label="gini = 0.0\nsamples = 1\nvalue = [0, 1]\nclass = h", fillcolor="#399de5"] ;
798 -> 799 ;
800 [label="x[9] <= 134.92\ngini = 0.095\nsamples = 20\nvalue = [19, 1]\nclass = g", fillcolor="#e68843"] ;
798 -> 800 ;
801 [label="x[1] <= 18.841\ngini = 0.444\nsamples = 3\nvalue = [2, 1]\nclass = g", fillcolor="#f2c09c"] ;
800 -> 801 ;
802 [label="gini = 0.0\nsamples = 2\nvalue = [2, 0]\nclass = g", fillcolor="#e58139"] ;
801 -> 802 ;
803 [label="gini = 0.0\nsamples = 1\nvalue = [0, 1]\nclass = h", fillcolor="#399de5"] ;
801 -> 803 ;
804 [label="gini = 0.0\nsamples = 17\nvalue = [17, 0]\nclass = g", fillcolor="#e58139"] ;
800 -> 804 ;
805 [label="gini = 0.0\nsamples = 1\nvalue = [0, 1]\nclass = h", fillcolor="#399de5"] ;
797 -> 805 ;
806 [label="x[5] <= 40.778\ngini = 0.5\nsamples = 4\nvalue = [2, 2]\nclass = g", fillcolor="#ffffff"] ;
778 -> 806 ;
807 [label="gini = 0.0\nsamples = 2\nvalue = [0, 2]\nclass = h", fillcolor="#399de5"] ;
806 -> 807 ;
808 [label="gini = 0.0\nsamples = 2\nvalue = [2, 0]\nclass = g", fillcolor="#e58139"] ;
806 -> 808 ;
809 [label="gini = 0.0\nsamples = 1\nvalue = [0, 1]\nclass = h", fillcolor="#399de5"] ;
777 -> 809 ;
810 [label="x[1] <= 34.431\ngini = 0.014\nsamples = 145\nvalue = [144, 1]\nclass = g", fillcolor="#e5823a"] ;
776 -> 810 ;
811 [label="gini = 0.0\nsamples = 137\nvalue = [137, 0]\nclass = g", fillcolor="#e58139"] ;
810 -> 811 ;
812 [label="x[3] <= 0.159\ngini = 0.219\nsamples = 8\nvalue = [7, 1]\nclass = g", fillcolor="#e99355"] ;
810 -> 812 ;
813 [label="gini = 0.0\nsamples = 7\nvalue = [7, 0]\nclass = g", fillcolor="#e58139"] ;
812 -> 813 ;
814 [label="gini = 0.0\nsamples = 1\nvalue = [0, 1]\nclass = h", fillcolor="#399de5"] ;
812 -> 814 ;
815 [label="x[1] <= 18.183\ngini = 0.314\nsamples = 87\nvalue = [70, 17]\nclass = g", fillcolor="#eba069"] ;
745 -> 815 ;
816 [label="x[9] <= 182.722\ngini = 0.245\nsamples = 77\nvalue = [66, 11]\nclass = g", fillcolor="#e9965a"] ;
815 -> 816 ;
817 [label="x[3] <= 0.414\ngini = 0.113\nsamples = 50\nvalue = [47, 3]\nclass = g", fillcolor="#e78946"] ;
816 -> 817 ;
818 [label="gini = 0.0\nsamples = 1\nvalue = [0, 1]\nclass = h", fillcolor="#399de5"] ;
817 -> 818 ;
819 [label="x[0] <= 16.391\ngini = 0.078\nsamples = 49\nvalue = [47.0, 2.0]\nclass = g", fillcolor="#e68641"] ;
817 -> 819 ;
820 [label="gini = 0.0\nsamples = 1\nvalue = [0, 1]\nclass = h", fillcolor="#399de5"] ;
819 -> 820 ;
821 [label="x[7] <= 16.475\ngini = 0.041\nsamples = 48\nvalue = [47, 1]\nclass = g", fillcolor="#e6843d"] ;
819 -> 821 ;
822 [label="gini = 0.0\nsamples = 47\nvalue = [47, 0]\nclass = g", fillcolor="#e58139"] ;
821 -> 822 ;
823 [label="gini = 0.0\nsamples = 1\nvalue = [0, 1]\nclass = h", fillcolor="#399de5"] ;
821 -> 823 ;
824 [label="x[2] <= 2.618\ngini = 0.417\nsamples = 27\nvalue = [19, 8]\nclass = g", fillcolor="#f0b68c"] ;
816 -> 824 ;
825 [label="x[1] <= 15.005\ngini = 0.198\nsamples = 18\nvalue = [16, 2]\nclass = g", fillcolor="#e89152"] ;
824 -> 825 ;
826 [label="gini = 0.0\nsamples = 1\nvalue = [0, 1]\nclass = h", fillcolor="#399de5"] ;
825 -> 826 ;
827 [label="x[2] <= 2.402\ngini = 0.111\nsamples = 17\nvalue = [16, 1]\nclass = g", fillcolor="#e78945"] ;
825 -> 827 ;
828 [label="x[7] <= -9.262\ngini = 0.5\nsamples = 2\nvalue = [1, 1]\nclass = g", fillcolor="#ffffff"] ;
827 -> 828 ;
829 [label="gini = 0.0\nsamples = 1\nvalue = [1, 0]\nclass = g", fillcolor="#e58139"] ;
828 -> 829 ;
830 [label="gini = 0.0\nsamples = 1\nvalue = [0, 1]\nclass = h", fillcolor="#399de5"] ;
828 -> 830 ;
831 [label="gini = 0.0\nsamples = 15\nvalue = [15, 0]\nclass = g", fillcolor="#e58139"] ;
827 -> 831 ;
832 [label="x[7] <= 12.198\ngini = 0.444\nsamples = 9\nvalue = [3, 6]\nclass = h", fillcolor="#9ccef2"] ;
824 -> 832 ;
833 [label="gini = 0.0\nsamples = 5\nvalue = [0, 5]\nclass = h", fillcolor="#399de5"] ;
832 -> 833 ;
834 [label="x[7] <= 14.009\ngini = 0.375\nsamples = 4\nvalue = [3, 1]\nclass = g", fillcolor="#eeab7b"] ;
832 -> 834 ;
835 [label="gini = 0.0\nsamples = 3\nvalue = [3, 0]\nclass = g", fillcolor="#e58139"] ;
834 -> 835 ;
836 [label="gini = 0.0\nsamples = 1\nvalue = [0, 1]\nclass = h", fillcolor="#399de5"] ;
834 -> 836 ;
837 [label="x[5] <= -7.056\ngini = 0.48\nsamples = 10\nvalue = [4, 6]\nclass = h", fillcolor="#bddef6"] ;
815 -> 837 ;
838 [label="gini = 0.0\nsamples = 2\nvalue = [2, 0]\nclass = g", fillcolor="#e58139"] ;
837 -> 838 ;
839 [label="x[1] <= 19.676\ngini = 0.375\nsamples = 8\nvalue = [2, 6]\nclass = h", fillcolor="#7bbeee"] ;
837 -> 839 ;
840 [label="gini = 0.0\nsamples = 5\nvalue = [0, 5]\nclass = h", fillcolor="#399de5"] ;
839 -> 840 ;
841 [label="x[6] <= 41.362\ngini = 0.444\nsamples = 3\nvalue = [2, 1]\nclass = g", fillcolor="#f2c09c"] ;
839 -> 841 ;
842 [label="gini = 0.0\nsamples = 2\nvalue = [2, 0]\nclass = g", fillcolor="#e58139"] ;
841 -> 842 ;
843 [label="gini = 0.0\nsamples = 1\nvalue = [0, 1]\nclass = h", fillcolor="#399de5"] ;
841 -> 843 ;
844 [label="x[6] <= 45.879\ngini = 0.473\nsamples = 26\nvalue = [16, 10]\nclass = g", fillcolor="#f5d0b5"] ;
744 -> 844 ;
845 [label="x[2] <= 2.682\ngini = 0.426\nsamples = 13\nvalue = [4, 9]\nclass = h", fillcolor="#91c9f1"] ;
844 -> 845 ;
846 [label="gini = 0.0\nsamples = 2\nvalue = [2, 0]\nclass = g", fillcolor="#e58139"] ;
845 -> 846 ;
847 [label="x[1] <= 14.624\ngini = 0.298\nsamples = 11\nvalue = [2, 9]\nclass = h", fillcolor="#65b3eb"] ;
845 -> 847 ;
848 [label="gini = 0.0\nsamples = 1\nvalue = [1, 0]\nclass = g", fillcolor="#e58139"] ;
847 -> 848 ;
849 [label="x[8] <= 13.194\ngini = 0.18\nsamples = 10\nvalue = [1, 9]\nclass = h", fillcolor="#4fa8e8"] ;
847 -> 849 ;
850 [label="x[8] <= 11.373\ngini = 0.444\nsamples = 3\nvalue = [1, 2]\nclass = h", fillcolor="#9ccef2"] ;
849 -> 850 ;
851 [label="gini = 0.0\nsamples = 2\nvalue = [0, 2]\nclass = h", fillcolor="#399de5"] ;
850 -> 851 ;
852 [label="gini = 0.0\nsamples = 1\nvalue = [1, 0]\nclass = g", fillcolor="#e58139"] ;
850 -> 852 ;
853 [label="gini = 0.0\nsamples = 7\nvalue = [0, 7]\nclass = h", fillcolor="#399de5"] ;
849 -> 853 ;
854 [label="x[5] <= 59.961\ngini = 0.142\nsamples = 13\nvalue = [12, 1]\nclass = g", fillcolor="#e78c49"] ;
844 -> 854 ;
855 [label="gini = 0.0\nsamples = 1\nvalue = [0, 1]\nclass = h", fillcolor="#399de5"] ;
854 -> 855 ;
856 [label="gini = 0.0\nsamples = 12\nvalue = [12, 0]\nclass = g", fillcolor="#e58139"] ;
854 -> 856 ;
857 [label="x[9] <= 253.637\ngini = 0.397\nsamples = 66\nvalue = [48, 18]\nclass = g", fillcolor="#efb083"] ;
743 -> 857 ;
858 [label="x[9] <= 252.16\ngini = 0.48\nsamples = 35\nvalue = [21, 14]\nclass = g", fillcolor="#f6d5bd"] ;
857 -> 858 ;
859 [label="x[2] <= 2.705\ngini = 0.42\nsamples = 30\nvalue = [21, 9]\nclass = g", fillcolor="#f0b78e"] ;
858 -> 859 ;
860 [label="x[2] <= 2.494\ngini = 0.496\nsamples = 11\nvalue = [5, 6]\nclass = h", fillcolor="#deeffb"] ;
859 -> 860 ;
861 [label="gini = 0.0\nsamples = 3\nvalue = [3, 0]\nclass = g", fillcolor="#e58139"] ;
860 -> 861 ;
862 [label="x[1] <= 15.03\ngini = 0.375\nsamples = 8\nvalue = [2, 6]\nclass = h", fillcolor="#7bbeee"] ;
860 -> 862 ;
863 [label="gini = 0.0\nsamples = 2\nvalue = [2, 0]\nclass = g", fillcolor="#e58139"] ;
862 -> 863 ;
864 [label="gini = 0.0\nsamples = 6\nvalue = [0, 6]\nclass = h", fillcolor="#399de5"] ;
862 -> 864 ;
865 [label="x[7] <= 10.448\ngini = 0.266\nsamples = 19\nvalue = [16, 3]\nclass = g", fillcolor="#ea995e"] ;
859 -> 865 ;
866 [label="gini = 0.0\nsamples = 12\nvalue = [12, 0]\nclass = g", fillcolor="#e58139"] ;
865 -> 866 ;
867 [label="x[3] <= 0.227\ngini = 0.49\nsamples = 7\nvalue = [4, 3]\nclass = g", fillcolor="#f8e0ce"] ;
865 -> 867 ;
868 [label="gini = 0.0\nsamples = 3\nvalue = [3, 0]\nclass = g", fillcolor="#e58139"] ;
867 -> 868 ;
869 [label="x[2] <= 2.886\ngini = 0.375\nsamples = 4\nvalue = [1, 3]\nclass = h", fillcolor="#7bbeee"] ;
867 -> 869 ;
870 [label="gini = 0.0\nsamples = 1\nvalue = [1, 0]\nclass = g", fillcolor="#e58139"] ;
869 -> 870 ;
871 [label="gini = 0.0\nsamples = 3\nvalue = [0, 3]\nclass = h", fillcolor="#399de5"] ;
869 -> 871 ;
872 [label="gini = 0.0\nsamples = 5\nvalue = [0, 5]\nclass = h", fillcolor="#399de5"] ;
858 -> 872 ;
873 [label="x[3] <= 0.496\ngini = 0.225\nsamples = 31\nvalue = [27, 4]\nclass = g", fillcolor="#e99456"] ;
857 -> 873 ;
874 [label="x[8] <= 13.756\ngini = 0.18\nsamples = 30\nvalue = [27, 3]\nclass = g", fillcolor="#e88f4f"] ;
873 -> 874 ;
875 [label="gini = 0.0\nsamples = 17\nvalue = [17, 0]\nclass = g", fillcolor="#e58139"] ;
874 -> 875 ;
876 [label="x[8] <= 14.012\ngini = 0.355\nsamples = 13\nvalue = [10, 3]\nclass = g", fillcolor="#eda774"] ;
874 -> 876 ;
877 [label="gini = 0.0\nsamples = 1\nvalue = [0, 1]\nclass = h", fillcolor="#399de5"] ;
876 -> 877 ;
878 [label="x[6] <= 37.23\ngini = 0.278\nsamples = 12\nvalue = [10, 2]\nclass = g", fillcolor="#ea9a61"] ;
876 -> 878 ;
879 [label="x[6] <= 20.084\ngini = 0.5\nsamples = 4\nvalue = [2, 2]\nclass = g", fillcolor="#ffffff"] ;
878 -> 879 ;
880 [label="gini = 0.0\nsamples = 2\nvalue = [2, 0]\nclass = g", fillcolor="#e58139"] ;
879 -> 880 ;
881 [label="gini = 0.0\nsamples = 2\nvalue = [0, 2]\nclass = h", fillcolor="#399de5"] ;
879 -> 881 ;
882 [label="gini = 0.0\nsamples = 8\nvalue = [8, 0]\nclass = g", fillcolor="#e58139"] ;
878 -> 882 ;
883 [label="gini = 0.0\nsamples = 1\nvalue = [0, 1]\nclass = h", fillcolor="#399de5"] ;
873 -> 883 ;
884 [label="x[2] <= 2.402\ngini = 0.491\nsamples = 23\nvalue = [10.0, 13.0]\nclass = h", fillcolor="#d1e8f9"] ;
726 -> 884 ;
885 [label="x[9] <= 111.588\ngini = 0.245\nsamples = 7\nvalue = [6, 1]\nclass = g", fillcolor="#e9965a"] ;
884 -> 885 ;
886 [label="gini = 0.0\nsamples = 1\nvalue = [0, 1]\nclass = h", fillcolor="#399de5"] ;
885 -> 886 ;
887 [label="gini = 0.0\nsamples = 6\nvalue = [6, 0]\nclass = g", fillcolor="#e58139"] ;
885 -> 887 ;
888 [label="x[0] <= 34.983\ngini = 0.375\nsamples = 16\nvalue = [4, 12]\nclass = h", fillcolor="#7bbeee"] ;
884 -> 888 ;
889 [label="x[8] <= 15.196\ngini = 0.245\nsamples = 14\nvalue = [2, 12]\nclass = h", fillcolor="#5aade9"] ;
888 -> 889 ;
890 [label="gini = 0.0\nsamples = 11\nvalue = [0, 11]\nclass = h", fillcolor="#399de5"] ;
889 -> 890 ;
891 [label="x[8] <= 17.778\ngini = 0.444\nsamples = 3\nvalue = [2, 1]\nclass = g", fillcolor="#f2c09c"] ;
889 -> 891 ;
892 [label="gini = 0.0\nsamples = 2\nvalue = [2, 0]\nclass = g", fillcolor="#e58139"] ;
891 -> 892 ;
893 [label="gini = 0.0\nsamples = 1\nvalue = [0, 1]\nclass = h", fillcolor="#399de5"] ;
891 -> 893 ;
894 [label="gini = 0.0\nsamples = 2\nvalue = [2, 0]\nclass = g", fillcolor="#e58139"] ;
888 -> 894 ;
895 [label="x[1] <= 27.32\ngini = 0.355\nsamples = 13\nvalue = [3, 10]\nclass = h", fillcolor="#74baed"] ;
725 -> 895 ;
896 [label="x[2] <= 2.86\ngini = 0.48\nsamples = 5\nvalue = [3, 2]\nclass = g", fillcolor="#f6d5bd"] ;
895 -> 896 ;
897 [label="gini = 0.0\nsamples = 2\nvalue = [0, 2]\nclass = h", fillcolor="#399de5"] ;
896 -> 897 ;
898 [label="gini = 0.0\nsamples = 3\nvalue = [3, 0]\nclass = g", fillcolor="#e58139"] ;
896 -> 898 ;
899 [label="gini = 0.0\nsamples = 8\nvalue = [0, 8]\nclass = h", fillcolor="#399de5"] ;
895 -> 899 ;
900 [label="x[5] <= -59.497\ngini = 0.478\nsamples = 76\nvalue = [30, 46]\nclass = h", fillcolor="#baddf6"] ;
724 -> 900 ;
901 [label="gini = 0.0\nsamples = 13\nvalue = [0, 13]\nclass = h", fillcolor="#399de5"] ;
900 -> 901 ;
